#mdl#2#5633
#rdr#61/19/0
1:*,
18:u:Tok-1 X=%x[ 0,0],
18:u:tok-1 X=%x[ 0,1],
18:u:tok-1LL=%X[-2,0],
18:u:tok-1 L=%X[-1,0],
18:u:tok-1 R=%X[ 1,0],
18:u:tok-1RR=%X[ 2,0],
27:u:tok-2 L=%X[-1,0]/%X[ 0,0],
27:u:tok-2 R=%X[ 0,0]/%X[ 1,0],
18:*:Fst-1 X=%x[ 0,2],
18:u:Fst-1 R=%x[ 1,2],
27:u:Fst-2 X=%x[ 0,2]/%x[ 0,4],
27:u:Fst-2 R=%x[ 1,2]/%x[ 1,4],
18:*:Lst-1 L=%x[-1,3],
18:u:Lst-1 X=%x[ 0,3],
27:u:Lst-2 L=%x[-1,3]/%x[-1,6],
27:u:Lst-2 X=%x[ 0,3]/%x[ 0,6],
18:u:Pre-1 X=%x[ 0,4],
18:u:Pre-2 X=%x[ 0,5],
18:u:Pre-2 R=%x[ 1,5],
18:u:Suf-1 X=%x[ 0,6],
18:u:Suf-2 L=%x[-1,7],
18:u:Suf-2 X=%x[ 0,7],
18:u:Cap-1 L=%x[-1,8],
18:u:Cap-1 X=%x[ 0,8],
18:u:Cap-1 R=%x[ 1,8],
27:u:Cap-2 L=%x[-1,8]/%x[ 0,8],
27:u:Cap-2 R=%x[ 0,8]/%x[ 1,8],
28:u:Cap-3 L=%x[-1,18]/%x[ 0,8],
18:*:Num-1 L=%x[-1,9],
18:*:Num-1 X=%x[ 0,9],
18:u:Num-1 R=%x[ 1,9],
28:u:Num-2 R=%x[ 0,9]/%x[ 0,17],
28:u:Num-2 R=%x[ 0,9]/%x[ 0,18],
19:u:Nme-1 X=%x[ 0,10],
19:u:Loc-1 X=%x[ 0,11],
19:u:Pub-1 X=%x[ 0,12],
19:u:Jnl-1 X=%x[ 0,13],
19:u:Key-1 L=%x[-1,14],
19:u:Key-1 X=%x[ 0,14],
19:u:Key-1 R=%x[ 1,14],
28:u:Key-2 X=%x[ 0,14]/%x[ 0,8],
29:u:Key-3 L=%x[-1,18]/%x[ 0,14],
29:u:Key-3 x=%x[ 0,14]/%x[ 0,18],
19:u:Pos-1 X=%x[ 0,15],
29:u:Pos-2 L=%x[-1,15]/%x[ 0,15],
29:u:Pos-2 R=%x[ 0,15]/%x[ 1,15],
19:u:Pct-1 L=%x[-1,16],
19:u:Pct-1 X=%x[ 0,16],
19:u:Pct-1 R=%x[ 1,16],
19:u:Brk-1 L=%x[-1,17],
19:u:Brk-1 X=%x[ 0,17],
19:u:Brk-1 R=%x[ 1,17],
19:*:Tmn-1 L=%x[-1,18],
19:u:Tmn-1 X=%x[ 0,18],
19:u:Tmn-1 R=%x[ 1,18],
29:u:Tmn-2 L=%x[-1,14]/%x[ 0,18],
29:u:Tmn-2 R=%x[ 0,18]/%x[ 1,14],
28:u:Tmn-3 X=%x[ 0,18]/%x[ 0,6],
28:u:Tmn-4 R=%x[ 0,18]/%x[ 1,8],
19:u:Id--1 X=%x[ 0,19],
#qrk#4
6:author,
4:date,
5:title,
9:publisher,
#qrk#2242
1:*,
14:u:tok-1LL=_x-2,
14:u:tok-1 L=_x-1,
14:u:tok-1 R=2023,
11:*:Fst-1 X=L,
11:u:Fst-1 R=N,
13:u:Fst-2 R=N/2,
14:*:Lst-1 L=_x-1,
11:u:Lst-1 X=L,
19:u:Lst-2 L=_x-1/_x-1,
12:u:Pre-2 R=20,
14:u:Suf-2 L=_x-1,
14:u:Cap-1 L=_x-1,
15:u:Cap-1 X=other,
15:u:Cap-1 R=other,
20:u:Cap-2 L=_x-1/other,
21:u:Cap-2 R=other/other,
20:u:Cap-3 L=_x-1/other,
14:*:Num-1 L=_x-1,
14:*:Num-1 X=none,
14:u:Num-1 R=year,
19:u:Num-2 R=none/none,
11:u:Nme-1 X=F,
11:u:Loc-1 X=F,
11:u:Pub-1 X=F,
11:u:Jnl-1 X=F,
14:u:Key-1 L=_x-1,
14:u:Key-1 X=none,
14:u:Key-1 R=none,
20:u:Key-2 X=none/other,
19:u:Key-3 L=_x-1/none,
19:u:Key-3 x=none/none,
15:u:Pos-1 X=first,
20:u:Pos-2 L=_x-1/first,
17:u:Pos-2 R=first/2,
14:u:Pct-1 L=_x-1,
14:u:Pct-1 X=none,
14:u:Pct-1 R=none,
14:u:Brk-1 L=_x-1,
14:u:Brk-1 X=none,
14:u:Brk-1 R=none,
14:*:Tmn-1 L=_x-1,
14:u:Tmn-1 X=none,
14:u:Tmn-1 R=none,
19:u:Tmn-2 L=_x-1/none,
19:u:Tmn-2 R=none/none,
20:u:Tmn-4 R=none/other,
11:u:Id--1 X=F,
14:u:Tok-1 X=2023,
14:u:tok-1 X=2023,
14:u:tok-1LL=_x-1,
11:*:Fst-1 X=N,
11:u:Fst-1 R=L,
13:u:Fst-2 X=N/2,
11:*:Lst-1 L=L,
11:u:Lst-1 X=N,
13:u:Lst-2 X=N/3,
11:u:Pre-1 X=2,
12:u:Pre-2 X=20,
11:u:Suf-1 X=3,
12:u:Suf-2 X=23,
15:u:Cap-1 L=other,
21:u:Cap-2 L=other/other,
20:u:Cap-3 L=none/other,
14:*:Num-1 L=none,
14:*:Num-1 X=year,
14:u:Num-1 R=none,
19:u:Num-2 R=year/none,
14:u:Key-1 L=none,
19:u:Key-3 L=none/none,
11:u:Pos-1 X=2,
17:u:Pos-2 L=first/2,
13:u:Pos-2 R=2/4,
14:u:Pct-1 L=none,
16:u:Pct-1 R=hyphen,
14:u:Brk-1 L=none,
14:*:Tmn-1 L=none,
19:u:Tmn-2 L=none/none,
16:u:Tmn-3 X=none/3,
14:u:tok-1 L=2023,
15:u:Fst-2 X=L/一,
15:u:Fst-2 R=L/臺,
11:*:Lst-1 L=N,
13:u:Lst-2 L=N/3,
13:u:Pre-1 X=一,
16:u:Pre-2 R=臺北,
12:u:Suf-2 L=23,
14:*:Num-1 L=year,
11:u:Pos-1 X=4,
13:u:Pos-2 L=2/4,
13:u:Pos-2 R=4/6,
16:u:Pct-1 X=hyphen,
14:u:tok-1LL=2023,
14:u:tok-1RR=_x+1,
15:u:Fst-2 X=L/臺,
12:u:Lst-1 X=Pe,
16:u:Lst-2 X=Pe/）,
13:u:Pre-1 X=臺,
16:u:Pre-2 X=臺北,
13:u:Suf-1 X=）,
11:u:Pos-1 X=6,
13:u:Pos-2 L=4/6,
16:u:Pos-2 R=6/last,
16:u:Pct-1 L=hyphen,
18:u:Tmn-3 X=none/）,
14:u:tok-1 R=_x+1,
14:u:tok-1RR=_x+2,
14:u:Fst-1 R=_x+1,
19:u:Fst-2 R=_x+1/_x+1,
12:*:Lst-1 L=Pe,
15:u:Lst-2 X=L/院,
14:u:Pre-2 R=_x+1,
13:u:Suf-1 X=院,
16:u:Suf-2 X=學院,
14:u:Cap-1 R=_x+1,
20:u:Cap-2 R=other/_x+1,
14:u:Num-1 R=_x+1,
14:u:Key-1 R=_x+1,
14:u:Pos-1 X=last,
16:u:Pos-2 L=6/last,
19:u:Pos-2 R=last/_x+1,
14:u:Pct-1 R=_x+1,
14:u:Brk-1 R=_x+1,
14:u:Tmn-1 R=_x+1,
19:u:Tmn-2 R=none/_x+1,
18:u:Tmn-3 X=none/院,
19:u:Tmn-4 R=none/_x+1,
15:u:Fst-2 X=L/陳,
13:u:Pre-1 X=陳,
17:u:Pos-2 R=first/3,
11:u:Pos-1 X=3,
17:u:Pos-2 L=first/3,
13:u:Pos-2 R=3/5,
11:u:Pos-1 X=5,
13:u:Pos-2 L=3/5,
16:u:Pos-2 R=5/last,
16:u:Pos-2 L=5/last,
15:u:Lst-2 X=L/例,
13:u:Suf-1 X=例,
16:u:Suf-2 X=為例,
18:u:Tmn-3 X=none/例,
15:u:Lst-2 L=L/例,
16:u:Suf-2 L=為例,
15:u:Fst-2 X=L/黃,
13:u:Pre-1 X=黃,
12:u:Fst-1 R=Pd,
15:u:Lst-2 X=L/討,
13:u:Suf-1 X=討,
16:u:Suf-2 X=探討,
18:u:Tmn-3 X=none/討,
12:*:Fst-1 X=Pd,
15:u:Lst-2 L=L/討,
16:u:Suf-2 L=探討,
15:u:Fst-2 X=L/劉,
13:u:Pre-1 X=劉,
15:u:Lst-2 X=L/究,
13:u:Suf-1 X=究,
16:u:Suf-2 X=研究,
18:u:Tmn-3 X=none/究,
15:u:Lst-2 L=L/究,
16:u:Suf-2 L=研究,
12:u:Fst-1 R=Ps,
15:u:Pct-1 R=other,
12:*:Fst-1 X=Ps,
16:u:Fst-2 X=Ps/《,
13:u:Pre-1 X=《,
15:u:Pct-1 X=other,
15:u:Pct-1 L=other,
15:u:Fst-2 X=L/李,
13:u:Pre-1 X=李,
15:u:Fst-2 X=L/許,
15:u:Lst-2 X=L/霖,
13:u:Pre-1 X=許,
13:u:Suf-1 X=霖,
18:u:Tmn-3 X=none/霖,
15:u:Lst-2 L=L/霖,
15:u:Fst-2 R=L/探,
15:u:Lst-2 L=L/雯,
15:u:Fst-2 X=L/探,
13:u:Pre-1 X=探,
15:u:Lst-2 X=L/析,
13:u:Suf-1 X=析,
18:u:Tmn-3 X=none/析,
15:u:Lst-2 L=L/析,
15:u:Fst-2 X=L/王,
13:u:Pre-1 X=王,
15:u:Fst-2 R=L/大,
15:u:Fst-2 X=L/大,
13:u:Pre-1 X=大,
15:u:Lst-2 X=L/學,
13:u:Suf-1 X=學,
16:u:Suf-2 X=大學,
18:u:Tmn-3 X=none/學,
15:u:Lst-2 X=L/翔,
13:u:Suf-1 X=翔,
18:u:Tmn-3 X=none/翔,
15:u:Lst-2 L=L/翔,
16:u:Pre-2 R=探討,
17:u:Num-1 R=numeric,
15:u:Lst-2 X=L/響,
16:u:Pre-2 X=探討,
13:u:Suf-1 X=響,
16:u:Suf-2 X=影響,
17:*:Num-1 X=numeric,
22:u:Num-2 R=numeric/none,
18:u:Tmn-3 X=none/響,
15:u:Lst-2 L=L/響,
16:u:Suf-2 L=影響,
17:*:Num-1 L=numeric,
15:u:Fst-2 X=L/鄭,
13:u:Pre-1 X=鄭,
15:u:Fst-2 R=L/對,
15:u:Fst-2 X=L/對,
13:u:Pre-1 X=對,
15:u:Fst-2 X=L/林,
15:u:Lst-2 X=L/萱,
13:u:Pre-1 X=林,
13:u:Suf-1 X=萱,
18:u:Tmn-3 X=none/萱,
15:u:Lst-2 L=L/萱,
15:u:Fst-2 R=L/長,
15:u:Fst-2 X=L/長,
13:u:Pre-1 X=長,
15:u:Fst-2 R=L/中,
15:u:Fst-2 X=L/中,
14:u:Fst-2 R=Pd/-,
13:u:Pre-1 X=中,
14:u:Pre-2 R=-以,
14:u:Fst-2 X=Pd/-,
11:u:Pre-1 X=-,
14:u:Pre-2 X=-以,
15:u:Fst-2 R=L/應,
16:u:Pre-2 R=應用,
15:u:Fst-2 X=L/應,
13:u:Pre-1 X=應,
16:u:Pre-2 X=應用,
15:u:Fst-2 X=L/莊,
13:u:Pre-1 X=莊,
11:u:Fst-1 R=S,
11:*:Fst-1 X=S,
15:u:Fst-2 X=S/─,
13:u:Pre-1 X=─,
15:u:Fst-2 X=L/葉,
15:u:Lst-2 X=L/宏,
13:u:Pre-1 X=葉,
13:u:Suf-1 X=宏,
18:u:Tmn-3 X=none/宏,
15:u:Lst-2 L=L/宏,
15:u:Fst-2 X=L/徐,
13:u:Pre-1 X=徐,
11:u:Lst-1 X=P,
11:*:Lst-1 L=P,
16:u:Suf-2 X=分析,
16:u:Suf-2 L=分析,
15:u:Fst-2 X=L/曾,
13:u:Pre-1 X=曾,
15:u:Fst-2 R=L/以,
14:u:Tmn-1 R=weak,
15:u:Fst-2 X=L/以,
12:u:Lst-1 X=Pd,
14:u:Lst-2 X=Pd/-,
13:u:Pre-1 X=以,
11:u:Suf-1 X=-,
19:u:Num-2 R=none/weak,
19:u:Key-3 x=none/weak,
14:u:Tmn-1 X=weak,
19:u:Tmn-2 L=none/weak,
19:u:Tmn-2 R=weak/none,
16:u:Tmn-3 X=weak/-,
20:u:Tmn-4 R=weak/other,
12:*:Lst-1 L=Pd,
14:u:Lst-2 L=Pd/-,
14:u:Suf-2 L=究-,
20:u:Cap-3 L=weak/other,
19:u:Key-3 L=weak/none,
14:*:Tmn-1 L=weak,
15:u:Lst-2 X=L/豪,
13:u:Suf-1 X=豪,
18:u:Tmn-3 X=none/豪,
15:u:Lst-2 L=L/豪,
15:u:Fst-2 X=L/邱,
13:u:Pre-1 X=邱,
16:u:Lst-2 X=Pd/—,
13:u:Suf-1 X=—,
18:u:Tmn-3 X=weak/—,
16:u:Lst-2 L=Pd/—,
15:u:Fst-2 R=L/企,
16:u:Pre-2 R=企業,
13:u:Fst-2 R=N/4,
12:u:Lst-1 X=Lu,
14:u:Lst-2 X=Lu/S,
11:u:Suf-1 X=S,
16:u:Tmn-3 X=none/S,
13:u:Fst-2 X=N/4,
12:*:Lst-1 L=Lu,
14:u:Lst-2 L=Lu/S,
11:u:Pre-1 X=4,
15:u:Fst-2 R=L/國,
15:u:Fst-2 X=L/國,
13:u:Pre-1 X=國,
15:u:Fst-2 X=L/呂,
13:u:Pre-1 X=呂,
15:u:Fst-2 X=L/蔡,
13:u:Pre-1 X=蔡,
13:u:Pos-2 R=2/3,
12:u:Fst-1 R=Lu,
14:u:Fst-2 R=Lu/E,
15:u:Lst-2 X=L/對,
12:u:Pre-2 R=ES,
13:u:Suf-1 X=對,
14:u:Cap-1 R=caps,
20:u:Cap-2 R=other/caps,
13:u:Pos-2 L=2/3,
18:u:Tmn-3 X=none/對,
19:u:Tmn-4 R=none/caps,
13:u:Tok-1 X=ESG,
13:u:tok-1 X=esg,
12:*:Fst-1 X=Lu,
14:u:Fst-2 X=Lu/E,
15:u:Lst-2 L=L/對,
14:u:Lst-2 X=Lu/G,
11:u:Pre-1 X=E,
12:u:Pre-2 X=ES,
11:u:Suf-1 X=G,
12:u:Suf-2 X=SG,
14:u:Cap-1 X=caps,
20:u:Cap-2 L=other/caps,
20:u:Cap-2 R=caps/other,
19:u:Cap-3 L=none/caps,
19:u:Key-2 X=none/caps,
13:u:Pos-2 R=5/7,
16:u:Tmn-3 X=none/G,
13:u:tok-1 L=esg,
14:u:Lst-2 L=Lu/G,
12:u:Suf-2 L=SG,
14:u:Cap-1 L=caps,
20:u:Cap-2 L=caps/other,
11:u:Pos-1 X=7,
13:u:Pos-2 L=5/7,
16:u:Pos-2 R=7/last,
13:u:tok-1LL=esg,
16:u:Pos-2 L=7/last,
15:u:Lst-2 X=L/廷,
13:u:Suf-1 X=廷,
18:u:Tmn-3 X=none/廷,
15:u:Lst-2 L=L/廷,
15:u:Fst-2 X=L/張,
13:u:Pre-1 X=張,
15:u:Fst-2 X=L/江,
13:u:Pre-1 X=江,
15:u:Fst-2 X=L/周,
13:u:Pre-1 X=周,
15:u:Fst-2 X=L/洪,
13:u:Pre-1 X=洪,
15:u:Pct-1 R=colon,
15:u:Pct-1 X=colon,
15:u:Pct-1 L=colon,
15:u:Fst-2 X=L/吳,
15:u:Lst-2 X=L/軒,
13:u:Pre-1 X=吳,
13:u:Suf-1 X=軒,
18:u:Tmn-3 X=none/軒,
15:u:Lst-2 L=L/軒,
15:u:Fst-2 X=L/郭,
13:u:Pre-1 X=郭,
14:u:Fst-2 R=Lu/O,
17:u:Cap-1 R=initial,
23:u:Cap-2 R=other/initial,
22:u:Tmn-4 R=none/initial,
14:u:Fst-2 X=Lu/O,
11:u:Pre-1 X=O,
17:u:Cap-1 X=initial,
23:u:Cap-2 L=other/initial,
23:u:Cap-2 R=initial/other,
22:u:Cap-3 L=none/initial,
22:u:Key-2 X=none/initial,
17:u:Cap-1 L=initial,
23:u:Cap-2 L=initial/other,
15:u:Fst-2 X=L/蘇,
13:u:Pre-1 X=蘇,
15:u:Lst-2 X=L/發,
13:u:Suf-1 X=發,
18:u:Tmn-3 X=none/發,
15:u:Lst-2 L=L/發,
15:u:Fst-2 X=L/謝,
13:u:Pre-1 X=謝,
16:u:Fst-2 R=Pd/－,
16:u:Fst-2 X=Pd/－,
13:u:Pre-1 X=－,
16:u:Pre-2 X=－以,
15:u:Fst-2 X=L/羅,
15:u:Lst-2 X=L/婷,
13:u:Pre-1 X=羅,
13:u:Suf-1 X=婷,
18:u:Tmn-3 X=none/婷,
15:u:Lst-2 L=L/婷,
16:u:Pre-2 R=臺灣,
16:u:Pre-2 X=臺灣,
15:u:Lst-2 X=P/：,
13:u:Suf-1 X=：,
18:u:Tmn-3 X=none/：,
15:u:Lst-2 L=P/：,
18:u:Tmn-1 R=moderate,
23:u:Num-2 R=none/moderate,
23:u:Key-3 x=none/moderate,
18:u:Tmn-1 X=moderate,
23:u:Tmn-2 L=none/moderate,
23:u:Tmn-2 R=moderate/none,
24:u:Tmn-4 R=moderate/other,
24:u:Cap-3 L=moderate/other,
23:u:Key-3 L=moderate/none,
18:*:Tmn-1 L=moderate,
15:u:Lst-2 X=L/維,
13:u:Suf-1 X=維,
18:u:Tmn-3 X=none/維,
15:u:Lst-2 L=L/維,
14:u:Fst-2 R=Lu/P,
14:u:Fst-2 X=Lu/P,
11:u:Pre-1 X=P,
15:u:Fst-2 X=L/楊,
13:u:Pre-1 X=楊,
15:u:Fst-2 R=L/透,
16:u:Pre-2 R=透過,
15:u:Fst-2 X=L/透,
13:u:Pre-1 X=透,
15:u:Fst-2 X=L/何,
13:u:Pre-1 X=何,
15:u:Fst-2 R=L/公,
16:u:Pre-2 R=公司,
15:u:Fst-2 X=L/公,
13:u:Pre-1 X=公,
16:u:Pre-2 X=公司,
15:u:Fst-2 R=L/表,
15:u:Lst-2 L=L/如,
15:u:Fst-2 R=L/台,
16:u:Pre-2 R=台灣,
15:u:Fst-2 X=L/台,
13:u:Pre-1 X=台,
16:u:Pre-2 X=台灣,
15:u:Lst-2 X=L/瑋,
13:u:Suf-1 X=瑋,
18:u:Tmn-3 X=none/瑋,
15:u:Lst-2 L=L/瑋,
15:u:Fst-2 X=L/用,
13:u:Pre-1 X=用,
17:u:Num-1 R=ordinal,
17:*:Num-1 X=ordinal,
22:u:Num-2 R=ordinal/none,
17:*:Num-1 L=ordinal,
15:u:Fst-2 R=L/使,
16:u:Pre-2 R=使用,
15:u:Fst-2 X=L/使,
14:u:Lst-2 X=Lu/M,
13:u:Pre-1 X=使,
16:u:Pre-2 X=使用,
11:u:Suf-1 X=M,
16:u:Tmn-3 X=none/M,
14:u:Lst-2 L=Lu/M,
15:u:Fst-2 R=L/基,
16:u:Pre-2 R=基於,
15:u:Fst-2 X=L/基,
14:u:Fst-2 R=Lu/N,
13:u:Pre-1 X=基,
16:u:Pre-2 X=基於,
12:u:Pre-2 R=NR,
12:u:Suf-2 X=5G,
14:u:Fst-2 X=Lu/N,
15:u:Lst-2 X=L/估,
11:u:Pre-1 X=N,
13:u:Suf-1 X=估,
12:u:Suf-2 L=5G,
16:u:Suf-2 X=評估,
18:u:Tmn-3 X=none/估,
15:u:Lst-2 L=L/估,
16:u:Suf-2 L=評估,
15:u:Lst-2 L=L/學,
15:u:Fst-2 R=L/具,
15:u:Fst-2 X=L/具,
13:u:Pre-1 X=具,
13:u:Fst-2 X=N/7,
11:u:Pre-1 X=7,
15:u:Lst-2 X=L/瑄,
13:u:Suf-1 X=瑄,
18:u:Tmn-3 X=none/瑄,
15:u:Lst-2 L=L/瑄,
15:u:Lst-2 X=L/涵,
13:u:Suf-1 X=涵,
18:u:Tmn-3 X=none/涵,
15:u:Lst-2 L=L/涵,
15:u:Lst-2 X=L/現,
13:u:Suf-1 X=現,
18:u:Tmn-3 X=none/現,
15:u:Fst-2 X=L/賴,
13:u:Pre-1 X=賴,
15:u:Lst-2 X=L/制,
13:u:Suf-1 X=制,
18:u:Tmn-3 X=none/制,
15:u:Lst-2 L=L/制,
15:u:Fst-2 R=L/運,
16:u:Pre-2 R=運用,
15:u:Fst-2 X=L/運,
13:u:Pre-1 X=運,
16:u:Pre-2 X=運用,
15:u:Lst-2 X=L/安,
13:u:Suf-1 X=安,
18:u:Tmn-3 X=none/安,
15:u:Lst-2 L=L/安,
15:u:Lst-2 X=L/恩,
13:u:Suf-1 X=恩,
18:u:Tmn-3 X=none/恩,
15:u:Fst-2 R=L/高,
15:u:Lst-2 L=L/恩,
15:u:Fst-2 X=L/高,
13:u:Pre-1 X=高,
15:u:Lst-2 X=L/測,
13:u:Suf-1 X=測,
16:u:Key-1 X=editor,
22:u:Key-2 X=editor/other,
21:u:Key-3 L=none/editor,
21:u:Key-3 x=editor/none,
18:u:Tmn-3 X=none/測,
15:u:Lst-2 L=L/測,
15:u:Lst-2 X=L/君,
13:u:Suf-1 X=君,
18:u:Tmn-3 X=none/君,
15:u:Lst-2 L=L/君,
15:u:Lst-2 X=L/計,
13:u:Suf-1 X=計,
16:u:Suf-2 X=設計,
18:u:Tmn-3 X=none/計,
15:u:Lst-2 L=L/計,
16:u:Suf-2 L=設計,
15:u:Brk-1 R=other,
20:u:Num-2 R=none/other,
15:u:Brk-1 X=other,
15:u:Brk-1 L=other,
15:u:Lst-2 X=L/瑜,
13:u:Suf-1 X=瑜,
18:u:Tmn-3 X=none/瑜,
14:u:Fst-2 R=Lu/C,
15:u:Lst-2 L=L/瑜,
14:u:Fst-2 X=Lu/C,
11:u:Pre-1 X=C,
12:u:Pre-2 X=CO,
15:u:Lst-2 X=L/翰,
13:u:Suf-1 X=翰,
18:u:Tmn-3 X=none/翰,
15:u:Fst-2 R=L/電,
15:u:Lst-2 L=L/翰,
15:u:Fst-2 X=L/電,
13:u:Pre-1 X=電,
16:u:Suf-2 X=開發,
16:u:Suf-2 L=開發,
13:u:tok-1 R=—,
16:u:Fst-2 R=Pd/—,
13:u:Pre-2 R=—,
13:u:Tok-1 X=—,
15:u:tok-1 X=BLANK,
16:u:Fst-2 X=Pd/—,
13:u:Pre-1 X=—,
13:u:Pre-2 X=—,
13:u:Suf-2 X=—,
13:u:tok-1 L=—,
13:u:Suf-2 L=—,
15:u:Lst-2 X=L/文,
13:u:Suf-1 X=文,
18:u:Tmn-3 X=none/文,
15:u:Lst-2 L=L/文,
15:u:Fst-2 X=L/影,
13:u:Pre-1 X=影,
15:u:Lst-2 X=L/法,
13:u:Suf-1 X=法,
16:u:Suf-2 X=方法,
18:u:Tmn-3 X=none/法,
15:u:Lst-2 L=L/法,
16:u:Suf-2 L=方法,
15:u:Fst-2 R=L/不,
15:u:Lst-2 X=L/型,
13:u:Suf-1 X=型,
18:u:Tmn-3 X=none/型,
14:u:Fst-2 R=Lu/A,
14:u:Fst-2 X=Lu/A,
11:u:Pre-1 X=A,
12:u:Pre-2 X=AI,
15:u:Lst-2 X=L/之,
13:u:Suf-1 X=之,
18:u:Tmn-3 X=none/之,
12:u:Lst-1 X=Ll,
15:u:Lst-2 L=L/之,
14:u:Lst-2 X=Ll/s,
11:u:Suf-1 X=s,
16:u:Tmn-3 X=none/s,
12:*:Lst-1 L=Ll,
14:u:Lst-2 L=Ll/s,
15:u:Lst-2 X=L/傑,
13:u:Suf-1 X=傑,
18:u:Tmn-3 X=none/傑,
14:u:Fst-2 R=Lu/L,
15:u:Lst-2 L=L/傑,
14:u:Fst-2 X=Lu/L,
14:u:Lst-2 X=Lu/D,
11:u:Pre-1 X=L,
11:u:Suf-1 X=D,
11:u:Nme-1 X=T,
11:u:Jnl-1 X=T,
16:u:Tmn-3 X=none/D,
14:u:Lst-2 L=Lu/D,
15:u:Lst-2 X=L/略,
13:u:Suf-1 X=略,
16:u:Suf-2 X=策略,
18:u:Tmn-3 X=none/略,
17:u:Pos-2 R=first/1,
14:u:Fst-2 R=Lu/I,
12:u:Pre-2 R=In,
11:u:Pos-1 X=1,
17:u:Pos-2 L=first/1,
13:u:Pos-2 R=1/3,
14:u:Fst-2 X=Lu/I,
15:u:Fst-2 R=L/的,
14:u:Lst-2 X=Ll/m,
11:u:Pre-1 X=I,
12:u:Pre-2 X=In,
11:u:Suf-1 X=m,
12:u:Suf-2 X=am,
13:u:Pos-2 L=1/3,
13:u:Pos-2 R=3/4,
16:u:Tmn-3 X=none/m,
15:u:Fst-2 X=L/的,
14:u:Lst-2 L=Ll/m,
15:u:Lst-2 X=L/及,
13:u:Pre-1 X=的,
13:u:Suf-1 X=及,
12:u:Suf-2 L=am,
13:u:Pos-2 L=3/4,
13:u:Pos-2 R=4/5,
18:u:Tmn-3 X=none/及,
15:u:Lst-2 L=L/及,
13:u:Pos-2 L=4/5,
13:u:Pos-2 R=5/6,
11:u:Lst-1 X=S,
15:u:Lst-2 X=S/─,
13:u:Suf-1 X=─,
13:u:Pos-2 L=5/6,
13:u:Pos-2 R=6/8,
18:u:Tmn-3 X=none/─,
11:*:Lst-1 L=S,
15:u:Lst-2 X=L/用,
13:u:Suf-1 X=用,
16:u:Suf-2 X=應用,
11:u:Pos-1 X=8,
13:u:Pos-2 L=6/8,
16:u:Pos-2 R=8/last,
18:u:Tmn-3 X=none/用,
15:u:Lst-2 L=L/用,
16:u:Suf-2 L=應用,
16:u:Pos-2 L=8/last,
15:u:Fst-2 X=L/廖,
13:u:Pre-1 X=廖,
14:u:Key-1 R=date,
19:u:Tmn-2 R=none/date,
14:u:Key-1 X=date,
20:u:Key-2 X=date/other,
19:u:Key-3 L=none/date,
19:u:Key-3 x=date/none,
14:u:Key-1 L=date,
19:u:Tmn-2 L=date/none,
23:u:Num-2 R=numeric/other,
15:u:Lst-2 X=L/宇,
13:u:Suf-1 X=宇,
18:u:Tmn-3 X=none/宇,
15:u:Lst-2 L=L/宇,
13:u:Fst-2 R=N/1,
13:u:Fst-2 X=N/1,
11:u:Pre-1 X=1,
15:u:Lst-2 X=L/心,
13:u:Suf-1 X=心,
18:u:Tmn-3 X=none/心,
15:u:Lst-2 L=L/心,
15:u:Lst-2 X=L/庭,
13:u:Suf-1 X=庭,
18:u:Tmn-3 X=none/庭,
15:u:Lst-2 L=L/庭,
16:u:Pct-1 R=period,
16:u:Pct-1 X=period,
14:u:Fst-2 R=Lu/G,
13:u:Lst-2 X=N/4,
12:u:Pre-2 X=2.,
12:u:Pre-2 R=GH,
11:u:Suf-1 X=4,
16:u:Pct-1 L=period,
16:u:Tmn-3 X=none/4,
14:u:Fst-2 X=Lu/G,
13:u:Lst-2 L=N/4,
15:u:Lst-2 X=L/器,
11:u:Pre-1 X=G,
13:u:Suf-1 X=器,
18:u:Tmn-3 X=none/器,
15:u:Lst-2 L=L/器,
15:u:Lst-2 X=L/穎,
13:u:Suf-1 X=穎,
18:u:Tmn-3 X=none/穎,
15:u:Lst-2 L=L/穎,
16:u:tok-1RR=為例,
15:u:Fst-2 X=L/研,
14:u:Lst-2 X=Lu/N,
13:u:Pre-1 X=研,
11:u:Suf-1 X=N,
12:u:Suf-2 X=AN,
16:u:Tmn-3 X=none/N,
16:u:tok-1 R=為例,
15:u:Fst-2 R=L/為,
14:u:Lst-2 L=Lu/N,
16:u:Pre-2 R=為例,
12:u:Suf-2 L=AN,
15:u:Fst-2 X=L/為,
13:u:Pre-1 X=為,
16:u:Suf-2 X=機制,
16:u:Suf-2 L=機制,
15:u:Lst-2 X=L/統,
13:u:Suf-1 X=統,
16:u:Suf-2 X=系統,
18:u:Tmn-3 X=none/統,
15:u:Lst-2 L=L/統,
16:u:Suf-2 L=系統,
22:u:Tok-1 X=大葉大學,
22:u:tok-1 X=大葉大學,
27:u:tok-2 R=大葉大學/_x+1,
16:u:Pre-2 X=大葉,
15:u:Lst-2 X=L/果,
13:u:Suf-1 X=果,
16:u:Suf-2 X=效果,
18:u:Tmn-3 X=none/果,
15:u:Lst-2 L=L/果,
16:u:Suf-2 L=效果,
12:u:Key-1 R=in,
17:u:Tmn-2 R=none/in,
12:u:Key-1 X=in,
17:u:Key-3 L=none/in,
17:u:Key-3 x=in/none,
12:u:Key-1 L=in,
17:u:Tmn-2 L=in/none,
14:u:tok-1RR=2023,
14:u:Fst-2 X=Lu/M,
14:u:Fst-2 R=Lu/M,
14:u:Lst-2 X=Ll/o,
11:u:Pre-1 X=M,
12:u:Pre-2 X=Ma,
12:u:Pre-2 R=Ma,
11:u:Suf-1 X=o,
22:u:Cap-2 L=_x-1/initial,
25:u:Cap-2 R=initial/initial,
22:u:Cap-3 L=_x-1/initial,
16:u:Tmn-3 X=none/o,
14:u:Lst-2 L=Ll/o,
14:u:Lst-2 X=Ll/a,
11:u:Suf-1 X=a,
25:u:Cap-2 L=initial/initial,
16:u:Tmn-3 X=none/a,
14:u:Lst-2 L=Ll/a,
15:u:Lst-2 X=L/色,
13:u:Suf-1 X=色,
16:u:Suf-2 X=角色,
18:u:Tmn-3 X=none/色,
15:u:Lst-2 L=L/色,
16:u:Suf-2 L=角色,
14:u:Fst-2 X=Lu/B,
14:u:Lst-2 X=Ll/h,
11:u:Pre-1 X=B,
12:u:Pre-2 R=Ch,
11:u:Suf-1 X=h,
16:u:Tmn-3 X=none/h,
14:u:Lst-2 L=Ll/h,
14:u:Lst-2 X=Ll/g,
12:u:Pre-2 X=Ch,
11:u:Suf-1 X=g,
16:u:Tmn-3 X=none/g,
14:u:Lst-2 L=Ll/g,
15:u:Fst-2 R=L/在,
15:u:Fst-2 X=L/在,
13:u:Pre-1 X=在,
15:u:Fst-2 R=L/新,
15:u:Fst-2 X=L/新,
13:u:Pre-1 X=新,
15:u:Lst-2 X=L/性,
13:u:Suf-1 X=性,
18:u:Tmn-3 X=none/性,
15:u:Lst-2 L=L/性,
15:u:Fst-2 X=L/利,
13:u:Pre-1 X=利,
15:u:Lst-2 X=L/與,
13:u:Suf-1 X=與,
18:u:Tmn-3 X=none/與,
15:u:Lst-2 L=L/與,
15:u:Fst-2 X=L/蕭,
13:u:Pre-1 X=蕭,
12:u:Fst-1 R=Ll,
15:u:Fst-2 X=L/人,
13:u:Pre-1 X=人,
12:u:Suf-2 X=ia,
15:u:Cap-1 R=lower,
21:u:Cap-2 R=other/lower,
20:u:Tmn-4 R=none/lower,
12:*:Fst-1 X=Ll,
14:u:Fst-2 R=Lu/W,
12:u:Suf-2 L=ia,
15:u:Cap-1 X=lower,
21:u:Cap-2 L=other/lower,
23:u:Cap-2 R=lower/initial,
20:u:Cap-3 L=none/lower,
20:u:Key-2 X=none/lower,
14:u:Fst-2 X=Lu/W,
11:u:Pre-1 X=W,
15:u:Cap-1 L=lower,
23:u:Cap-2 L=lower/initial,
15:u:Lst-2 L=L/項,
16:u:Suf-2 L=變項,
13:u:Lst-2 X=P/:,
11:u:Suf-1 X=:,
20:u:Tmn-3 X=moderate/:,
13:u:Lst-2 L=P/:,
14:u:Fst-2 R=Lu/V,
19:u:Cap-2 L=_x-1/caps,
19:u:Cap-2 R=caps/caps,
19:u:Cap-3 L=_x-1/caps,
14:u:Fst-2 X=Lu/V,
14:u:Fst-2 R=Lu/S,
11:u:Pre-1 X=V,
16:u:Cap-1 R=single,
19:u:Cap-2 L=caps/caps,
21:u:Tmn-4 R=none/single,
14:u:Fst-2 X=Lu/S,
11:u:Pre-1 X=S,
16:u:Cap-1 X=single,
22:u:Cap-2 R=single/other,
21:u:Cap-3 L=none/single,
16:u:Cap-1 L=single,
22:u:Cap-2 L=single/other,
13:u:tok-1 R=–,
16:u:Fst-2 R=Pd/–,
13:u:Pre-2 R=–,
13:u:Tok-1 X=–,
16:u:Fst-2 X=Pd/–,
16:u:Lst-2 X=Pd/–,
13:u:Pre-1 X=–,
13:u:Pre-2 X=–,
13:u:Suf-1 X=–,
13:u:Suf-2 X=–,
18:u:Tmn-3 X=weak/–,
13:u:tok-1 L=–,
16:u:Lst-2 L=Pd/–,
13:u:Suf-2 L=–,
15:u:Fst-2 R=L/利,
16:u:Pre-2 R=利用,
16:u:Pre-2 X=利用,
15:u:Fst-2 R=L/從,
15:u:Fst-2 X=L/從,
13:u:Pre-1 X=從,
15:u:Fst-2 R=L/世,
15:u:Fst-2 X=L/世,
13:u:Pre-1 X=世,
15:u:Lst-2 L=L/點,
14:u:Lst-2 X=Ll/d,
11:u:Suf-1 X=d,
12:u:Suf-2 X=ed,
16:u:Tmn-3 X=none/d,
14:u:Lst-2 L=Ll/d,
12:u:Suf-2 L=ed,
12:u:Pre-2 X=Mo,
12:u:Suf-2 X=ad,
14:u:Lst-2 X=Ll/i,
12:u:Pre-2 R=Pu,
11:u:Suf-1 X=i,
12:u:Suf-2 L=ad,
12:u:Suf-2 X=di,
16:u:Tmn-3 X=none/i,
14:u:Lst-2 L=Ll/i,
12:u:Pre-2 X=Pu,
12:u:Suf-2 L=di,
12:u:Suf-2 X=ra,
12:u:Suf-2 L=ra,
16:u:Pre-2 R=國立,
16:u:Pre-2 X=國立,
14:u:Lst-2 X=Lu/H,
11:u:Suf-1 X=H,
16:u:Tmn-3 X=none/H,
14:u:Lst-2 L=Lu/H,
14:u:Fst-2 X=Lu/H,
14:u:Fst-2 R=Lu/B,
11:u:Pre-1 X=H,
12:u:Pre-2 X=Ha,
12:u:Pre-2 R=Ba,
12:u:Pre-2 X=Ba,
12:u:Suf-2 X=ao,
11:u:Loc-1 X=T,
12:u:Suf-2 X=ng,
12:u:Suf-2 L=ng,
13:u:Lst-2 X=P/?,
11:u:Suf-1 X=?,
16:u:Tmn-3 X=weak/?,
13:u:Fst-2 R=N/3,
13:u:Fst-2 X=N/3,
11:u:Pre-1 X=3,
15:u:Num-1 R=roman,
15:*:Num-1 X=roman,
20:u:Num-2 R=roman/none,
15:*:Num-1 L=roman,
15:u:Fst-2 R=L/亞,
15:u:Fst-2 X=L/亞,
13:u:Pre-1 X=亞,
14:u:Fst-2 R=Lu/Y,
22:u:Cap-2 R=other/single,
14:u:Fst-2 X=Lu/Y,
14:u:Lst-2 X=Lu/Y,
11:u:Pre-1 X=Y,
11:u:Suf-1 X=Y,
22:u:Cap-2 L=other/single,
21:u:Key-2 X=none/single,
16:u:Tmn-3 X=none/Y,
14:u:Lst-2 L=Lu/Y,
16:u:Pre-2 R=高雄,
16:u:Pre-2 X=高雄,
11:u:tok-1RR=a,
11:u:tok-1 R=a,
15:u:Lst-2 X=L/以,
11:u:Pre-2 R=A,
13:u:Suf-1 X=以,
18:u:Tmn-3 X=none/以,
11:u:Tok-1 X=A,
11:u:tok-1 X=a,
15:u:Lst-2 L=L/以,
14:u:Lst-2 X=Lu/A,
11:u:Pre-2 X=A,
11:u:Suf-1 X=A,
14:u:Suf-2 L=-以,
11:u:Suf-2 X=A,
16:u:Tmn-3 X=none/A,
11:u:tok-1 L=a,
14:u:Lst-2 L=Lu/A,
11:u:Suf-2 L=A,
13:u:Pos-2 R=6/7,
11:u:tok-1LL=a,
13:u:Pos-2 L=6/7,
14:u:Fst-2 R=Lu/H,
14:u:Lst-2 X=Ll/e,
12:u:Pre-2 X=Mu,
12:u:Pre-2 R=Ha,
11:u:Suf-1 X=e,
16:u:Tmn-3 X=none/e,
14:u:Lst-2 L=Ll/e,
14:u:Lst-2 X=Ll/n,
12:u:Pre-2 R=Hu,
11:u:Suf-1 X=n,
12:u:Suf-2 X=an,
16:u:Tmn-3 X=none/n,
14:u:Lst-2 L=Ll/n,
12:u:Pre-2 X=Hu,
12:u:Suf-2 L=an,
12:u:Suf-2 X=in,
12:u:Suf-2 L=in,
15:u:Lst-2 X=L/的,
13:u:Suf-1 X=的,
18:u:Tmn-3 X=none/的,
15:u:Fst-2 R=L/和,
15:u:Lst-2 L=L/的,
14:u:Lst-2 X=Lu/C,
11:u:Suf-1 X=C,
16:u:Tmn-3 X=none/C,
15:u:Fst-2 X=L/和,
14:u:Lst-2 L=Lu/C,
13:u:Pre-1 X=和,
14:u:Lst-2 X=Lu/T,
11:u:Suf-1 X=T,
16:u:Tmn-3 X=none/T,
14:u:Lst-2 L=Lu/T,
15:u:Fst-2 X=L/結,
13:u:Pre-1 X=結,
16:u:Lst-2 X=Pd/－,
16:u:Pre-2 R=以台,
13:u:Suf-1 X=－,
18:u:Tmn-3 X=weak/－,
16:u:Lst-2 L=Pd/－,
16:u:Pre-2 X=以台,
14:u:Lst-2 X=Lu/E,
11:u:Suf-1 X=E,
16:u:Tmn-3 X=none/E,
14:u:Lst-2 L=Lu/E,
15:u:Lst-2 X=L/素,
13:u:Suf-1 X=素,
18:u:Tmn-3 X=none/素,
15:u:Lst-2 L=L/素,
16:u:Suf-2 L=因素,
12:u:Pre-2 X=Na,
15:u:Fst-2 R=L/與,
15:u:Fst-2 X=L/與,
13:u:Pre-1 X=與,
14:u:Lst-2 X=Lu/P,
11:u:Suf-1 X=P,
16:u:Tmn-3 X=none/P,
14:u:Lst-2 L=Lu/P,
15:u:Lst-2 X=L/於,
13:u:Suf-1 X=於,
18:u:Tmn-3 X=none/於,
15:u:Lst-2 L=L/於,
16:u:Suf-2 L=用於,
15:u:Fst-2 R=L/之,
15:u:Fst-2 X=L/之,
13:u:Pre-1 X=之,
28:u:Tok-1 X=中山醫學大學,
28:u:tok-1 X=中山醫學大學,
33:u:tok-2 R=中山醫學大學/_x+1,
16:u:Pre-2 X=中山,
15:u:Num-1 R=idnum,
13:u:Lst-2 X=N/1,
11:u:Suf-1 X=1,
15:*:Num-1 X=idnum,
20:u:Num-2 R=idnum/none,
16:u:Tmn-3 X=none/1,
13:u:Lst-2 L=N/1,
15:*:Num-1 L=idnum,
11:u:tok-1RR=-,
11:u:tok-1 R=-,
11:u:Pre-2 R=-,
11:u:Tok-1 X=-,
11:u:Pre-2 X=-,
11:u:Suf-2 X=-,
11:u:tok-1 L=-,
11:u:Suf-2 L=-,
13:u:Fst-2 R=N/5,
16:u:Num-1 R=double,
13:u:Fst-2 X=N/5,
15:u:Lst-2 L=L/白,
13:u:Lst-2 X=N/5,
11:u:Pre-1 X=5,
11:u:Suf-1 X=5,
16:u:Suf-2 L=蛋白,
16:*:Num-1 X=double,
21:u:Num-2 R=double/none,
16:u:Tmn-3 X=none/5,
13:u:Lst-2 L=N/5,
16:*:Num-1 L=double,
14:u:Fst-2 X=Lu/X,
11:u:Pre-1 X=X,
15:u:Lst-2 X=L/化,
13:u:Suf-1 X=化,
18:u:Tmn-3 X=none/化,
15:u:Lst-2 L=L/化,
14:u:Fst-2 R=Ll/r,
14:u:Lst-2 X=Ll/c,
11:u:Suf-1 X=c,
12:u:Suf-2 X=ic,
16:u:Tmn-3 X=none/c,
14:u:Fst-2 X=Ll/r,
11:u:Pre-1 X=r,
12:u:Suf-2 L=ic,
16:u:Pre-2 R=亞洲,
16:u:Pre-2 X=亞洲,
12:u:Suf-2 X=us,
12:u:Suf-2 L=us,
12:u:Suf-2 X=se,
21:u:Cap-2 R=lower/other,
12:u:Suf-2 L=se,
21:u:Cap-2 L=lower/other,
15:u:Fst-2 R=L/東,
15:u:Fst-2 X=L/東,
13:u:Pre-1 X=東,
15:u:Lst-2 L=L/妤,
13:u:Lst-2 X=N/7,
11:u:Suf-1 X=7,
16:u:Tmn-3 X=none/7,
14:u:Fst-2 R=Lu/T,
14:u:Fst-2 X=Lu/T,
11:u:Pre-1 X=T,
12:u:Pre-2 R=Co,
14:u:Fst-2 R=Ll/a,
12:u:Pre-2 X=Co,
14:u:Fst-2 X=Ll/a,
11:u:Pre-1 X=a,
15:u:Fst-2 X=L/評,
13:u:Pre-1 X=評,
14:u:Fst-2 R=Lu/K,
14:u:Fst-2 X=Lu/K,
11:u:Pre-1 X=K,
14:u:Fst-2 R=Lu/D,
14:u:Fst-2 X=Lu/D,
11:u:Pre-1 X=D,
12:u:Pre-2 X=De,
16:u:Suf-2 L=探究,
12:u:Pre-2 R=3D,
12:u:Pre-2 X=3D,
16:u:Pre-2 R=中國,
16:u:Pre-2 X=中國,
14:u:Lst-2 X=Lu/L,
11:u:Suf-1 X=L,
16:u:Tmn-3 X=none/L,
14:u:Lst-2 L=Lu/L,
15:u:Lst-2 X=L/在,
13:u:Suf-1 X=在,
18:u:Tmn-3 X=none/在,
15:u:Lst-2 L=L/在,
16:u:tok-1 L=探討,
13:u:Lst-2 X=N/6,
11:u:Suf-1 X=6,
16:u:Tmn-3 X=none/6,
13:u:Lst-2 X=N/9,
11:u:Suf-1 X=9,
12:u:Suf-2 X=19,
16:u:Tmn-3 X=none/9,
13:u:Lst-2 L=N/9,
12:u:Suf-2 L=19,
12:u:Pre-2 R=HO,
12:u:Pre-2 X=HO,
14:u:Fst-2 R=Ll/c,
14:u:Lst-2 X=Lu/B,
11:u:Suf-1 X=B,
16:u:Tmn-3 X=none/B,
14:u:Fst-2 X=Ll/c,
14:u:Lst-2 L=Lu/B,
11:u:Pre-1 X=c,
13:u:Lst-2 X=N/2,
11:u:Suf-1 X=2,
12:u:Suf-2 X=-2,
16:u:Tmn-3 X=none/2,
13:u:Lst-2 L=N/2,
12:u:Suf-2 L=-2,
15:u:Fst-2 R=L/輔,
15:u:Fst-2 X=L/輔,
13:u:Pre-1 X=輔,
16:u:Suf-2 X=中心,
16:u:Suf-2 L=中心,
16:u:Pre-2 R=—以,
16:u:Pre-2 X=—以,
11:u:Fst-1 R=P,
11:*:Fst-1 X=P,
15:u:Fst-2 R=L/及,
15:u:Fst-2 X=L/及,
13:u:Pre-1 X=及,
22:u:Num-2 R=numeric/weak,
14:u:Fst-2 R=Ll/m,
14:u:Lst-2 X=Lu/R,
11:u:Suf-1 X=R,
16:u:Tmn-3 X=none/R,
14:u:Fst-2 X=Ll/m,
14:u:Lst-2 L=Lu/R,
14:u:Lst-2 X=Ll/x,
11:u:Pre-1 X=m,
11:u:Suf-1 X=x,
16:u:Tmn-3 X=none/x,
14:u:Lst-2 L=Ll/x,
16:u:Suf-2 L=究：,
34:u:Tok-1 X=中信金融管理學院,
34:u:tok-1 X=中信金融管理學院,
39:u:tok-2 R=中信金融管理學院/_x+1,
16:u:Pre-2 X=中信,
13:u:Pos-2 R=1/2,
14:u:Fst-2 R=Lu/U,
13:u:Pos-2 L=1/2,
14:u:Fst-2 X=Lu/U,
11:u:Pre-1 X=U,
16:u:Num-1 R=single,
11:u:Tok-1 X=2,
11:u:tok-1 X=2,
11:u:Pre-2 X=2,
11:u:Suf-2 X=2,
16:*:Num-1 X=single,
21:u:Num-2 R=single/none,
16:*:Num-1 L=single,
13:u:Pos-2 R=5/5,
12:u:Pre-2 R=Li,
16:u:Suf-2 L=：以,
13:u:Pos-2 L=5/5,
15:u:Lst-2 L=L/灣,
14:u:Lst-2 X=Ll/y,
12:u:Pre-2 X=Pa,
11:u:Suf-1 X=y,
13:u:Pos-2 R=7/8,
16:u:Tmn-3 X=none/y,
14:u:Lst-2 L=Ll/y,
13:u:Pos-2 L=7/8,
14:u:Fst-2 R=Lu/R,
14:u:Fst-2 X=Lu/R,
14:u:Lst-2 X=Lu/V,
11:u:Pre-1 X=R,
11:u:Suf-1 X=V,
16:u:Tmn-3 X=none/V,
14:u:Lst-2 L=Lu/V,
13:u:tok-1 R=與,
13:u:Pre-2 R=與,
13:u:Tok-1 X=與,
13:u:tok-1 X=與,
13:u:Pre-2 X=與,
13:u:Suf-2 X=與,
13:u:tok-1 L=與,
13:u:Suf-2 L=與,
14:u:Fst-2 R=Ll/i,
14:u:Fst-2 X=Ll/i,
11:u:Pre-1 X=i,
22:u:tok-1RR=中原大學,
22:u:tok-1 R=中原大學,
16:u:Pre-2 R=中原,
22:u:Tok-1 X=中原大學,
22:u:tok-1 X=中原大學,
27:u:tok-2 R=中原大學/_x+1,
16:u:Pre-2 X=中原,
13:u:Pos-2 R=1/1,
13:u:Pos-2 L=1/1,
13:u:Fst-2 R=P/:,
13:u:Fst-2 X=P/:,
11:u:Pre-1 X=:,
13:u:Pos-2 R=4/4,
13:u:Pos-2 L=4/4,
13:u:Pos-2 R=6/6,
13:u:Pos-2 L=6/6,
15:u:Fst-2 R=L/分,
15:u:Fst-2 X=L/分,
13:u:Pre-1 X=分,
13:u:Pos-2 R=8/9,
11:u:Pos-1 X=9,
13:u:Pos-2 L=8/9,
16:u:Pos-2 R=9/last,
16:u:Pos-2 L=9/last,
24:u:Cap-2 R=initial/single,
24:u:Cap-2 L=initial/single,
12:u:Pre-2 X=10,
15:u:Fst-2 R=L/雙,
14:u:Lst-2 X=Ll/t,
11:u:Suf-1 X=t,
16:u:Tmn-3 X=none/t,
14:u:Lst-2 L=Ll/t,
16:u:Suf-2 L=使用,
16:u:Pre-2 R=國防,
16:u:Pre-2 X=國防,
15:u:Fst-2 R=L/模,
15:u:Fst-2 X=L/模,
13:u:Pre-1 X=模,
16:u:Suf-2 X=基於,
16:u:tok-1 L=基於,
16:u:Suf-2 L=基於,
12:u:Suf-2 X=re,
16:u:tok-1LL=基於,
12:u:Suf-2 L=re,
16:u:Suf-2 L=利用,
14:u:Lst-2 X=Lu/F,
11:u:Suf-1 X=F,
16:u:Tmn-3 X=none/F,
14:u:Lst-2 L=Lu/F,
12:u:Tok-1 X=AI,
12:u:tok-1 X=ai,
14:u:Lst-2 X=Lu/I,
11:u:Suf-1 X=I,
12:u:Suf-2 X=AI,
16:u:Tmn-3 X=none/I,
12:u:tok-1 L=ai,
14:u:Lst-2 L=Lu/I,
12:u:Suf-2 L=AI,
15:u:Fst-2 R=L/於,
15:u:Fst-2 X=L/於,
13:u:Pre-1 X=於,
16:u:tok-1 L=利用,
23:u:Brk-1 R=closing-paren,
16:u:Tmn-1 R=strong,
14:u:Lst-2 X=Pe/),
11:u:Suf-1 X=),
24:u:Num-2 R=numeric/strong,
21:u:Key-3 x=none/strong,
23:u:Brk-1 X=closing-paren,
16:u:Tmn-1 X=strong,
21:u:Tmn-2 L=none/strong,
21:u:Tmn-2 R=strong/none,
18:u:Tmn-3 X=strong/),
22:u:Tmn-4 R=strong/other,
14:u:Lst-2 L=Pe/),
22:u:Cap-3 L=strong/other,
21:u:Key-3 L=strong/none,
23:u:Brk-1 L=closing-paren,
16:*:Tmn-1 L=strong,
14:u:Fst-2 R=Lu/F,
14:u:Fst-2 X=Lu/F,
11:u:Pre-1 X=F,
12:u:tok-1 R=3d,
12:u:Tok-1 X=3D,
12:u:tok-1 X=3d,
12:u:Suf-2 X=3D,
12:u:tok-1 L=3d,
12:u:Suf-2 L=3D,
15:u:Lst-2 X=L/和,
13:u:Suf-1 X=和,
18:u:Tmn-3 X=none/和,
15:u:Lst-2 L=L/和,
15:u:Fst-2 R=L/型,
13:u:tok-1 L=對,
13:u:Suf-2 L=對,
15:u:Lst-2 L=L/會,
14:u:Lst-2 X=Lu/O,
11:u:Suf-1 X=O,
16:u:Tmn-3 X=none/O,
14:u:Lst-2 L=Lu/O,
14:u:Lst-2 X=Ll/l,
12:u:Pre-2 R=En,
11:u:Suf-1 X=l,
16:u:Tmn-3 X=none/l,
14:u:Lst-2 L=Ll/l,
12:u:Pre-2 X=En,
13:u:Lst-2 X=N/0,
11:u:Suf-1 X=0,
16:u:Tmn-3 X=none/0,
13:u:Lst-2 L=N/0,
22:u:Cap-2 R=caps/initial,
22:u:Cap-2 L=caps/initial,
14:u:Lst-2 X=Ll/r,
11:u:Suf-1 X=r,
12:u:Suf-2 X=or,
16:u:Tmn-3 X=none/r,
14:u:Lst-2 L=Ll/r,
12:u:Suf-2 L=or,
11:u:tok-1 R=:,
11:u:Pre-2 R=:,
11:u:Tok-1 X=:,
11:u:Pre-2 X=:,
11:u:Suf-2 X=:,
11:u:tok-1 L=:,
11:u:Suf-2 L=:,
16:u:tok-1 L=使用,
16:u:tok-1LL=使用,
12:u:Suf-2 X=ss,
12:u:Suf-2 L=ss,
14:u:Fst-2 R=Ps/(,
16:u:Brk-1 R=parens,
14:u:Fst-2 X=Ps/(,
11:u:Pre-1 X=(,
21:u:Num-2 R=none/parens,
21:u:Num-2 R=none/strong,
16:u:Brk-1 X=parens,
16:u:Brk-1 L=parens,
15:u:Fst-2 X=L/靜,
13:u:Pre-1 X=靜,
12:u:Pre-2 R=MA,
12:u:Pre-2 X=MA,
14:u:Suf-2 L=究:,
16:u:Pre-2 X=中華,
28:u:tok-1 R=中國文化大學,
28:u:Tok-1 X=中國文化大學,
28:u:tok-1 X=中國文化大學,
33:u:tok-2 R=中國文化大學/_x+1,
12:u:Suf-2 X=er,
12:u:Suf-2 L=er,
15:u:Fst-2 R=L/明,
15:u:Fst-2 X=L/明,
13:u:Pre-1 X=明,
13:u:Lst-2 X=P/.,
11:u:Suf-1 X=.,
18:u:Tmn-3 X=strong/.,
13:u:Lst-2 L=P/.,
12:u:Suf-2 X=on,
12:u:Suf-2 L=on,
21:u:Num-2 R=year/strong,
13:u:tok-1RR=nan,
13:u:tok-1 R=nan,
18:u:tok-2 R=2023/nan,
14:u:Fst-2 R=Ll/n,
12:u:Pre-2 R=na,
13:u:Tok-1 X=nan,
13:u:tok-1 X=nan,
18:u:tok-2 L=2023/nan,
14:u:Fst-2 X=Ll/n,
11:u:Pre-1 X=n,
12:u:Pre-2 X=na,
13:u:tok-1 L=nan,
16:u:Suf-2 L=台灣,
13:u:tok-1 X=the,
12:u:Suf-2 X=he,
11:u:Pub-1 X=T,
12:u:Pre-2 R=Re,
12:u:Suf-2 L=he,
12:u:Pre-2 X=Re,
15:u:Fst-2 R=L/南,
15:u:Fst-2 X=L/南,
13:u:Pre-1 X=南,
13:u:Tok-1 X=以,
13:u:tok-1 X=以,
13:u:Pre-2 X=以,
13:u:Suf-2 X=以,
13:u:tok-1 L=以,
13:u:Suf-2 L=以,
13:u:tok-1LL=以,
28:u:tok-1 R=中國醫藥大學,
28:u:Tok-1 X=中國醫藥大學,
28:u:tok-1 X=中國醫藥大學,
33:u:tok-2 R=中國醫藥大學/_x+1,
18:u:Tok-1 X=COVID-19,
17:u:tok-1 X=covid19,
23:u:tok-2 L=2023/covid-19,
18:u:tok-1 L=covid-19,
12:u:Pre-2 X=Le,
12:u:Suf-2 X=OC,
12:u:Suf-2 L=OC,
14:u:Lst-2 X=Ll/u,
11:u:Suf-1 X=u,
16:u:Tmn-3 X=none/u,
14:u:Lst-2 L=Ll/u,
12:u:Suf-2 X=da,
12:u:Suf-2 L=da,
12:u:Suf-2 X=ni,
14:u:Fst-2 X=Lu/Q,
11:u:Pre-1 X=Q,
12:u:Suf-2 X=ya,
23:u:Cap-2 R=initial/lower,
12:u:Suf-2 L=ya,
23:u:Cap-2 L=initial/lower,
16:u:Tok-1 X=Nguyen,
16:u:tok-1 X=nguyen,
13:u:tok-1 R=thi,
21:u:tok-2 L=_x-1/nguyen,
12:u:Pre-2 X=Ng,
12:u:Pre-2 R=Th,
12:u:Suf-2 X=en,
13:u:Tok-1 X=Thi,
13:u:tok-1 X=thi,
16:u:tok-1 L=nguyen,
20:u:tok-2 L=nguyen/thi,
12:u:Pre-2 X=Th,
12:u:Suf-2 L=en,
12:u:Suf-2 X=hi,
16:u:tok-1LL=nguyen,
13:u:tok-1 L=thi,
12:u:Suf-2 L=hi,
13:u:tok-1LL=thi,
12:u:Pre-2 R=An,
12:u:Pre-2 X=An,
14:u:Lst-2 X=Ll/k,
11:u:Suf-1 X=k,
16:u:Tmn-3 X=none/k,
13:u:Fst-2 X=N/8,
15:u:Lst-2 L=L/酶,
13:u:Lst-2 X=N/8,
11:u:Pre-1 X=8,
11:u:Suf-1 X=8,
16:u:Tmn-3 X=none/8,
13:u:Lst-2 L=N/8,
24:u:Num-2 R=numeric/parens,
12:u:Suf-2 L=IS,
13:u:tok-1RR=the,
13:u:Pos-2 R=2/2,
13:u:tok-1 R=the,
14:u:Fst-2 R=Ll/t,
12:u:Pre-2 X=Ex,
12:u:Pre-2 R=th,
13:u:Pos-2 L=2/2,
13:u:Tok-1 X=the,
12:u:tok-1RR=of,
14:u:Fst-2 X=Ll/t,
14:u:Fst-2 R=Ll/e,
11:u:Pre-1 X=t,
12:u:Pre-2 X=th,
21:u:Cap-2 R=lower/lower,
13:u:Pos-2 R=3/3,
13:u:tok-1 L=the,
12:u:tok-1 R=of,
14:u:Fst-2 X=Ll/e,
14:u:Fst-2 R=Ll/o,
11:u:Pre-1 X=e,
12:u:Pre-2 R=of,
12:u:Suf-2 X=ts,
21:u:Cap-2 L=lower/lower,
13:u:Pos-2 L=3/3,
12:u:Tok-1 X=of,
12:u:tok-1 X=of,
13:u:tok-1LL=the,
14:u:Fst-2 X=Ll/o,
14:u:Lst-2 X=Ll/f,
11:u:Pre-1 X=o,
12:u:Pre-2 X=of,
11:u:Suf-1 X=f,
12:u:Suf-2 L=ts,
12:u:Suf-2 X=of,
16:u:Tmn-3 X=none/f,
12:u:tok-1 L=of,
14:u:Lst-2 L=Ll/f,
12:u:Suf-2 L=of,
12:u:Suf-2 X=al,
12:u:tok-1LL=of,
14:u:Fst-2 R=Ll/s,
12:u:Suf-2 L=al,
12:u:tok-1RR=on,
14:u:Fst-2 X=Ll/s,
11:u:Pre-1 X=s,
12:u:Suf-2 X=ce,
12:u:tok-1 R=on,
12:u:Pre-2 R=on,
12:u:Suf-2 L=ce,
12:u:Tok-1 X=on,
12:u:tok-1 X=on,
12:u:Pre-2 X=on,
12:u:tok-1 L=on,
12:u:tok-1RR=in,
13:u:Pos-2 R=7/7,
12:u:tok-1LL=on,
12:u:tok-1 R=in,
12:u:Pre-2 R=in,
12:u:Suf-2 X=ty,
13:u:Pos-2 L=7/7,
12:u:Tok-1 X=in,
12:u:tok-1 X=in,
12:u:Pre-2 X=in,
12:u:Suf-2 L=ty,
18:u:Key-2 X=in/lower,
13:u:Pos-2 R=8/8,
12:u:tok-1 L=in,
13:u:Pos-2 L=8/8,
12:u:tok-1LL=in,
12:u:Pre-2 X=Ph,
12:u:Suf-2 X=es,
12:u:Suf-2 L=es,
11:u:Tok-1 X=1,
11:u:tok-1 X=1,
11:u:Pre-2 X=1,
11:u:Suf-2 X=1,
23:u:Brk-1 R=opening-paren,
28:u:Num-2 R=none/opening-paren,
23:u:Brk-1 X=opening-paren,
23:u:Brk-1 L=opening-paren,
12:u:Suf-2 X=na,
12:u:Suf-2 L=na,
12:u:Suf-2 X=le,
12:u:Suf-2 L=le,
14:u:Fst-2 R=Ll/b,
14:u:Fst-2 X=Ll/b,
14:u:Fst-2 R=Ll/f,
11:u:Pre-1 X=b,
14:u:Fst-2 X=Ll/f,
11:u:Pre-1 X=f,
12:u:Suf-2 X=s:,
26:u:Tmn-4 R=moderate/initial,
11:u:Id--1 X=T,
12:u:Suf-2 L=s:,
26:u:Cap-3 L=moderate/initial,
15:u:tok-1RR=study,
15:u:tok-1 R=study,
13:u:Pos-2 R=9/9,
15:u:tok-1 X=study,
12:u:Suf-2 X=dy,
13:u:Pos-2 L=9/9,
15:u:tok-1 L=study,
12:u:Suf-2 L=dy,
14:u:Fst-2 R=Ll/p,
14:u:Fst-2 X=Ll/p,
11:u:Pre-1 X=p,
14:u:Fst-2 R=Ll/d,
14:u:Fst-2 X=Ll/d,
11:u:Pre-1 X=d,
15:u:tok-1 R=thanh,
15:u:Tok-1 X=Thanh,
15:u:tok-1 X=thanh,
12:u:Suf-2 X=nh,
15:u:tok-1 L=thanh,
12:u:Pre-2 R=Kh,
12:u:Suf-2 L=nh,
12:u:Pre-2 X=Kh,
12:u:Suf-2 X=ai,
12:u:Suf-2 L=ai,
12:u:Pre-2 X=MU,
12:u:Pre-2 R=HU,
12:u:Suf-2 X=AT,
17:u:Pos-2 R=first/0,
12:u:Pre-2 X=HU,
12:u:Suf-2 L=AT,
12:u:Suf-2 X=IN,
11:u:Pos-1 X=0,
17:u:Pos-2 L=first/0,
13:u:Pos-2 R=0/1,
13:u:Pos-2 L=0/1,
13:u:tok-1RR=and,
13:u:tok-1 R=and,
12:u:Pre-2 R=an,
12:u:Suf-2 X=is,
13:u:Key-1 R=and,
18:u:Tmn-2 R=none/and,
13:u:Tok-1 X=and,
13:u:tok-1 X=and,
12:u:Pre-2 X=an,
12:u:Suf-2 L=is,
12:u:Suf-2 X=nd,
13:u:Key-1 X=and,
19:u:Key-2 X=and/lower,
18:u:Key-3 L=none/and,
18:u:Key-3 x=and/none,
13:u:tok-1 L=and,
12:u:Suf-2 L=nd,
13:u:Key-1 L=and,
18:u:Tmn-2 L=and/none,
13:u:tok-1LL=and,
12:u:Pre-2 R=Se,
12:u:Suf-2 X=NA,
12:u:Suf-2 L=Le,
13:u:tok-1RR=anh,
12:u:Pre-2 R=Tr,
13:u:tok-1 R=anh,
12:u:Pre-2 X=Tr,
13:u:tok-1 X=anh,
14:u:tok-1 L=tran,
14:u:tok-1LL=tran,
18:u:tok-2 R=2023/the,
13:u:Tok-1 X=The,
12:u:Suf-2 X=ct,
12:u:Suf-2 L=ct,
12:u:Suf-2 X=rs,
12:u:Suf-2 L=rs,
11:u:Tok-1 X=C,
11:u:tok-1 X=c,
11:u:Pre-2 X=C,
11:u:Suf-2 X=C,
14:u:tok-1 R=ngoc,
12:u:Pre-2 R=Ng,
14:u:Tok-1 X=Ngoc,
14:u:tok-1 X=ngoc,
12:u:Suf-2 X=oc,
14:u:tok-1 L=ngoc,
12:u:Suf-2 L=oc,
14:u:Fst-2 R=Lu/J,
14:u:Fst-2 X=Lu/J,
11:u:Pre-1 X=J,
31:u:Num-2 R=numeric/opening-paren,
12:u:Pre-2 R=Da,
12:u:Pre-2 X=Da,
12:u:Suf-2 X=la,
12:u:Pre-2 R=Ra,
12:u:Suf-2 L=la,
14:u:Lst-2 X=Ll/z,
12:u:Pre-2 X=Ra,
11:u:Suf-1 X=z,
12:u:Suf-2 X=ez,
16:u:Tmn-3 X=none/z,
12:u:Suf-2 L=ha,
12:u:Suf-2 X=ri,
16:u:tok-1 R=phuong,
16:u:tok-1 X=phuong,
12:u:Suf-2 X=11,
12:u:Suf-2 X=ar,
13:u:Fst-2 X=N/9,
13:u:Lst-2 X=P/,,
11:u:Pre-1 X=9,
11:u:Suf-1 X=,,
16:u:Tmn-3 X=weak/,,
13:u:Lst-2 L=P/,,
12:u:Pre-2 X=Sh,
12:u:Suf-2 X=EN,
12:u:Suf-2 L=EN,
12:u:Suf-2 X=78,
15:u:Lst-2 L=L/至,
12:u:Pre-2 R=19,
12:u:Pre-2 X=19,
15:u:Fst-2 R=L/元,
15:u:Fst-2 X=L/元,
13:u:Pre-1 X=元,
22:u:tok-1 R=元智大學,
16:u:Pre-2 R=元智,
22:u:Tok-1 X=元智大學,
22:u:tok-1 X=元智大學,
27:u:tok-2 R=元智大學/_x+1,
16:u:Pre-2 X=元智,
12:u:Pre-2 X=80,
12:u:Suf-2 X=22,
20:u:Num-2 R=range/none,
12:u:Suf-2 X=20,
12:u:Pre-2 X=YO,
12:u:Tok-1 X=5G,
12:u:tok-1 X=5g,
12:u:Pre-2 X=5G,
16:u:Key-1 R=volume,
21:u:Tmn-2 R=none/volume,
13:u:Fst-2 R=N/6,
13:u:Fst-2 X=N/6,
11:u:Pre-1 X=6,
22:u:Cap-2 R=initial/caps,
13:u:tok-1 R=和,
13:u:Pre-2 R=和,
22:u:Cap-2 L=initial/caps,
13:u:Tok-1 X=和,
13:u:tok-1 X=和,
13:u:Pre-2 X=和,
13:u:Suf-2 X=和,
13:u:tok-1 L=和,
13:u:Suf-2 L=和,
13:u:tok-1LL=和,
16:u:tok-1 L=——,
16:u:Suf-2 L=——,
16:u:tok-1LL=——,
16:u:Pre-2 R=模型,
12:u:Pre-2 X=(1,
22:u:tok-1RR=公司為例,
22:u:tok-1 R=公司為例,
12:u:Suf-2 L=AD,
13:u:Pct-1 R=amp,
13:u:Pct-1 X=amp,
12:u:Pre-2 R=Sa,
12:u:Pre-2 X=Sa,
12:u:Pre-2 R=Va,
12:u:Pre-2 X=Va,
14:u:Tok-1 X=2030,
14:u:tok-1 X=2030,
12:u:Suf-2 X=30,
22:u:Tok-1 X=世新大學,
22:u:tok-1 X=世新大學,
27:u:tok-2 R=世新大學/_x+1,
16:u:Pre-2 X=世新,
12:u:Suf-2 X=ve,
12:u:Suf-2 L=ve,
12:u:Pre-2 R=Al,
12:u:Pre-2 X=Al,
12:u:Suf-2 X=nt,
12:u:Suf-2 L=nt,
12:u:Pre-2 R=Ho,
12:u:Pre-2 X=Ho,
13:u:Tok-1 X=文,
13:u:tok-1 X=文,
13:u:Pre-2 X=文,
13:u:Suf-2 X=文,
12:u:Suf-2 X=K.,
12:u:Suf-2 L=K.,
34:u:tok-1RR=台灣神學研究學院,
24:u:Cap-2 R=single/initial,
24:u:Cap-2 L=single/initial,
21:u:Tok-1 X=2013–2023,
18:u:tok-1 X=20132023,
61:u:tok-1LL=牧者的教會觀與其培育系統之關係研究,
28:u:tok-1 L=—以士林教會,
22:u:tok-1 R=年間為例,
40:u:tok-2 L=—以士林教會/2013–2023,
34:u:tok-2 R=2013–2023/年間為例,
15:u:Fst-2 R=L/年,
16:u:Pre-2 R=年間,
16:u:Suf-2 L=教會,
15:u:Fst-2 X=L/年,
13:u:Pre-1 X=年,
22:u:Num-2 R=roman/strong,
12:u:Suf-2 X=12,
12:u:Suf-2 X=1),
12:u:Pre-2 R=NG,
12:u:Pre-2 X=NG,
12:u:Pre-2 R=MU,
12:u:Suf-2 X=IA,
12:u:Suf-2 L=IA,
16:u:Num-1 R=triple,
12:u:Suf-2 X=18,
16:*:Num-1 X=triple,
21:u:Num-2 R=triple/none,
16:*:Num-1 L=triple,
28:u:Num-2 R=none/closing-paren,
12:u:Pre-2 R=TH,
12:u:Pre-2 X=TH,
12:u:Pre-2 X=RA,
22:u:tok-1 R=亞洲大學,
22:u:Tok-1 X=亞洲大學,
22:u:tok-1 X=亞洲大學,
27:u:tok-2 R=亞洲大學/_x+1,
19:u:Tmn-2 L=_x-1/weak,
19:u:Tmn-4 R=weak/caps,
19:u:Cap-3 L=weak/caps,
12:u:Pre-2 X=AS,
13:u:Tok-1 X=THI,
12:u:tok-1 L=le,
12:u:Suf-2 L=LE,
12:u:Suf-2 X=HI,
15:u:Tok-1 X=THANH,
12:u:tok-1LL=le,
12:u:Pre-2 R=HA,
12:u:Suf-2 L=HI,
12:u:Suf-2 X=NH,
12:u:Pre-2 X=HA,
12:u:Suf-2 L=NH,
12:u:Pre-2 R=Mo,
11:u:Pre-2 R=a,
11:u:Tok-1 X=a,
11:u:Pre-2 X=a,
11:u:Suf-2 X=a,
11:u:Suf-2 L=a,
12:u:Suf-2 X=ns,
12:u:Suf-2 L=ns,
12:u:Suf-2 X=ge,
12:u:Suf-2 L=ge,
14:u:Tok-1 X=NGOC,
12:u:Suf-2 X=NG,
12:u:Suf-2 L=NG,
17:u:tok-1 X=ibrahim,
12:u:Suf-2 X=im,
17:u:tok-1 L=ibrahim,
12:u:Pre-2 X=PH,
15:u:tok-1 L=huynh,
13:u:tok-1RR=for,
13:u:tok-1 R=for,
12:u:Pre-2 R=fo,
13:u:Tok-1 X=for,
13:u:tok-1 X=for,
12:u:Pre-2 X=fo,
13:u:tok-1 L=for,
13:u:tok-1LL=for,
12:u:Suf-2 X=ta,
12:u:Pre-2 X=Wi,
12:u:Suf-2 L=ta,
14:u:tok-1RR=with,
14:u:tok-1 R=with,
14:u:Fst-2 R=Ll/w,
12:u:Pre-2 R=wi,
14:u:Tok-1 X=with,
14:u:tok-1 X=with,
14:u:Fst-2 X=Ll/w,
11:u:Pre-1 X=w,
12:u:Pre-2 X=wi,
12:u:Suf-2 X=th,
14:u:tok-1 L=with,
12:u:Suf-2 L=th,
14:u:tok-1LL=with,
12:u:Pre-2 R=AN,
12:u:Pre-2 X=AN,
16:u:Tok-1 X=NGUYEN,
12:u:Suf-2 X=IL,
12:u:Suf-2 L=IL,
12:*:Lst-1 L=Pf,
12:u:Pre-2 R=St,
12:u:Pre-2 X=St,
25:u:Tmn-4 R=moderate/single,
25:u:Cap-3 L=moderate/single,
15:u:Tok-1 X=Study,
14:u:Lst-2 X=Ll/p,
11:u:Suf-1 X=p,
16:u:Tmn-3 X=none/p,
14:u:Lst-2 L=Ll/p,
22:u:Tmn-4 R=weak/initial,
22:u:Cap-3 L=weak/initial,
12:u:Suf-2 L=DO,
12:u:Suf-2 X=ah,
12:u:Suf-2 X=TA,
12:u:Suf-2 L=TA,
16:u:Pre-2 X=以國,
12:u:Suf-2 X=DI,
12:u:Pre-2 X=AL,
28:u:Tok-1 X=明志科技大學,
28:u:tok-1 X=明志科技大學,
33:u:tok-2 R=明志科技大學/_x+1,
16:u:Pre-2 X=明志,
12:u:Suf-2 L=RS,
12:u:Suf-2 X=17,
28:u:Tok-1 X=明新科技大學,
28:u:tok-1 X=明新科技大學,
33:u:tok-2 R=明新科技大學/_x+1,
16:u:Pre-2 X=明新,
14:u:Lst-2 X=Lu/X,
11:u:Suf-1 X=X,
16:u:Tmn-3 X=none/X,
14:u:Lst-2 L=Lu/X,
15:u:Fst-2 R=L/淡,
15:u:Fst-2 X=L/淡,
13:u:Pre-1 X=淡,
22:u:tok-1RR=東吳大學,
22:u:tok-1 R=東吳大學,
16:u:Pre-2 R=東吳,
22:u:Tok-1 X=東吳大學,
22:u:tok-1 X=東吳大學,
27:u:tok-2 R=東吳大學/_x+1,
16:u:Pre-2 X=東吳,
20:u:Cap-2 R=lower/caps,
20:u:Cap-2 L=lower/caps,
16:u:tok-1LL=health,
12:u:Pre-2 X=Im,
12:u:tok-1RR=to,
12:u:tok-1 R=to,
12:u:Pre-2 R=to,
12:u:Tok-1 X=to,
12:u:tok-1 X=to,
12:u:Pre-2 X=to,
12:u:tok-1 L=to,
12:u:tok-1LL=to,
14:u:Fst-2 R=Lu/Q,
12:u:Pre-2 R=Qu,
12:u:Pre-2 X=Qu,
14:u:tok-1RR=case,
14:u:tok-1 R=case,
18:u:tok-2 R=study/of,
18:u:tok-2 L=study/of,
15:u:tok-1LL=study,
12:u:Pre-2 R=Vi,
16:u:Pre-2 R=東海,
16:u:Pre-2 X=東海,
12:u:Pre-2 R=fr,
12:u:Pre-2 X=fr,
12:u:Suf-2 X=om,
14:u:tok-1 L=from,
12:u:Suf-2 L=om,
12:u:Suf-2 X=24,
12:u:Suf-2 X=50,
22:u:tok-1 R=東海大學,
22:u:Tok-1 X=東海大學,
22:u:tok-1 X=東海大學,
27:u:tok-2 R=東海大學/_x+1,
11:u:Tok-1 X=X,
11:u:tok-1 X=x,
11:u:Pre-2 X=X,
11:u:Suf-2 X=X,
22:u:tok-1RR=長庚大學,
22:u:tok-1 R=長庚大學,
16:u:Pre-2 R=長庚,
22:u:Tok-1 X=長庚大學,
22:u:tok-1 X=長庚大學,
27:u:tok-2 R=長庚大學/_x+1,
16:u:Pre-2 X=長庚,
16:u:tok-1 R=nguyen,
14:u:tok-1 L=pham,
14:u:tok-1LL=pham,
12:u:tok-1 R=my,
12:u:Tok-1 X=My,
12:u:tok-1 X=my,
12:u:Pre-2 X=My,
12:u:Suf-2 X=My,
12:u:tok-1 L=do,
12:u:Suf-2 L=IM,
13:u:Fst-2 X=N/0,
11:u:Pre-1 X=0,
14:u:tok-1 L=dang,
14:u:tok-1 R=thuy,
14:u:tok-1 X=thuy,
12:u:Suf-2 X=UY,
14:u:tok-1 R=hong,
14:u:tok-1 X=hong,
14:u:tok-1 R=linh,
15:u:tok-1 X=hoang,
15:u:tok-1 L=hoang,
12:u:Pre-2 R=BA,
12:u:Pre-2 X=BA,
22:u:Tok-1 X=南華大學,
22:u:tok-1 X=南華大學,
27:u:tok-2 R=南華大學/_x+1,
16:u:Pre-2 X=南華,
28:u:tok-1 R=南臺科技大學,
16:u:Pre-2 R=南臺,
28:u:Tok-1 X=南臺科技大學,
28:u:tok-1 X=南臺科技大學,
33:u:tok-2 R=南臺科技大學/_x+1,
16:u:Pre-2 X=南臺,
12:u:Pre-2 R=NH,
12:u:Pre-2 X=NH,
18:u:Tmn-2 R=weak/and,
20:u:Tmn-4 R=weak/lower,
12:u:Suf-2 L=s,,
20:u:Cap-3 L=weak/lower,
18:u:Key-3 L=weak/and,
12:u:Pre-2 R=DU,
12:u:Pre-2 X=DA,
12:u:Pre-2 R=PH,
16:u:Tok-1 X=PHUONG,
12:u:Suf-2 X=2),
28:u:tok-1 R=高雄醫學大學,
28:u:Tok-1 X=高雄醫學大學,
28:u:tok-1 X=高雄醫學大學,
33:u:tok-2 R=高雄醫學大學/_x+1,
12:u:Suf-2 X=ti,
28:u:tok-1RR=國立中山大學,
28:u:tok-1 R=國立中山大學,
28:u:Tok-1 X=國立中山大學,
28:u:tok-1 X=國立中山大學,
33:u:tok-2 R=國立中山大學/_x+1,
13:u:tok-1 L=張,
15:u:Lst-2 L=L/張,
13:u:Suf-2 L=張,
15:u:Key-1 R=roman,
20:u:Tmn-2 R=none/roman,
15:u:Key-1 X=roman,
20:u:Key-2 X=roman/caps,
20:u:Key-3 L=none/roman,
20:u:Key-3 x=roman/none,
15:u:Key-1 L=roman,
20:u:Tmn-2 L=roman/none,
12:u:Suf-2 X=00,
28:u:tok-1RR=國立中央大學,
28:u:tok-1 R=國立中央大學,
28:u:Tok-1 X=國立中央大學,
28:u:tok-1 X=國立中央大學,
33:u:tok-2 R=國立中央大學/_x+1,
14:u:tok-1 R=2022,
14:u:Tok-1 X=2022,
14:u:tok-1 X=2022,
14:u:tok-1LL=1978,
18:u:tok-1 L=muhammad,
19:u:Tok-1 X=2016~2022,
18:u:tok-1 X=20162022,
28:u:tok-1LL=評分之影響－,
43:u:tok-1 R=年台灣上市上櫃公司為例,
23:u:tok-2 L=以/2016~2022,
53:u:tok-2 R=2016~2022/年台灣上市上櫃公司為例,
16:u:Pre-2 R=年台,
14:u:tok-1 R=2021,
14:u:Tok-1 X=2021,
14:u:tok-1 X=2021,
12:u:Suf-2 X=21,
12:u:Pre-2 X=1.,
12:u:Pre-2 X=12,
28:u:tok-1RR=國立中正大學,
28:u:tok-1 R=國立中正大學,
28:u:Tok-1 X=國立中正大學,
28:u:tok-1 X=國立中正大學,
33:u:tok-2 R=國立中正大學/_x+1,
12:u:Pre-2 X=NA,
16:u:Suf-2 L=—以,
28:u:tok-1RR=國立中興大學,
28:u:tok-1 R=國立中興大學,
28:u:Tok-1 X=國立中興大學,
28:u:tok-1 X=國立中興大學,
33:u:tok-2 R=國立中興大學/_x+1,
12:u:Pre-2 R=nm,
12:u:Suf-2 X=n,,
12:u:Suf-2 L=n,,
15:u:Fst-2 X=L/朝,
13:u:Pre-1 X=朝,
28:u:tok-1RR=國立成功大學,
28:u:tok-1 R=國立成功大學,
28:u:Tok-1 X=國立成功大學,
28:u:tok-1 X=國立成功大學,
33:u:tok-2 R=國立成功大學/_x+1,
19:u:tok-1 X=intention,
12:u:Suf-2 X=y,,
12:u:Suf-2 L=y,,
28:u:tok-1RR=國立東華大學,
28:u:tok-1 R=國立東華大學,
28:u:Tok-1 X=國立東華大學,
28:u:tok-1 X=國立東華大學,
33:u:tok-2 R=國立東華大學/_x+1,
34:u:Tok-1 X=國立虎尾科技大學,
34:u:tok-1 X=國立虎尾科技大學,
39:u:tok-2 R=國立虎尾科技大學/_x+1,
34:u:tok-1RR=國立屏東科技大學,
34:u:tok-1 R=國立屏東科技大學,
34:u:Tok-1 X=國立屏東科技大學,
34:u:tok-1 X=國立屏東科技大學,
39:u:tok-2 R=國立屏東科技大學/_x+1,
28:u:tok-1RR=國立政治大學,
28:u:tok-1 R=國立政治大學,
28:u:Tok-1 X=國立政治大學,
28:u:tok-1 X=國立政治大學,
33:u:tok-2 R=國立政治大學/_x+1,
12:u:Suf-2 X=15,
28:u:tok-1RR=國立高雄大學,
34:u:tok-1RR=國立高雄科技大學,
34:u:tok-1 R=國立高雄科技大學,
34:u:Tok-1 X=國立高雄科技大學,
34:u:tok-1 X=國立高雄科技大學,
39:u:tok-2 R=國立高雄科技大學/_x+1,
34:u:tok-1RR=國立高雄師範大學,
34:u:tok-1 R=國立高雄師範大學,
34:u:Tok-1 X=國立高雄師範大學,
34:u:tok-1 X=國立高雄師範大學,
39:u:tok-2 R=國立高雄師範大學/_x+1,
28:u:tok-1RR=國立清華大學,
28:u:tok-1 R=國立清華大學,
28:u:Tok-1 X=國立清華大學,
28:u:tok-1 X=國立清華大學,
33:u:tok-2 R=國立清華大學/_x+1,
15:u:Fst-2 R=L/義,
15:u:Fst-2 X=L/義,
13:u:Pre-1 X=義,
19:u:tok-1LL=鄭凱鴻,
14:u:Tok-1 X=2018,
14:u:tok-1 X=2018,
16:u:Pre-2 R=大聯,
34:u:tok-1RR=國立陽明交通大學,
34:u:tok-1 R=國立陽明交通大學,
34:u:Tok-1 X=國立陽明交通大學,
34:u:tok-1 X=國立陽明交通大學,
39:u:tok-2 R=國立陽明交通大學/_x+1,
13:u:tok-1 L=至,
13:u:Suf-2 L=至,
13:u:tok-1RR=年,
13:u:tok-1 R=年,
13:u:Pre-2 R=年,
34:u:tok-1RR=國立雲林科技大學,
34:u:tok-1 R=國立雲林科技大學,
34:u:Tok-1 X=國立雲林科技大學,
34:u:tok-1 X=國立雲林科技大學,
39:u:tok-2 R=國立雲林科技大學/_x+1,
12:u:Suf-2 X=NI,
12:u:Suf-2 L=NI,
12:u:Pre-2 X=KH,
12:u:Pre-2 R=KH,
18:u:tok-1LL=sochanya,
61:u:tok-1 R=年泰國大選懸峙議會對泰國股市的影響,
19:u:tok-2 L=2023/2023,
66:u:tok-2 R=2023/年泰國大選懸峙議會對泰國股市的影響,
16:u:Pre-2 R=年泰,
34:u:Tok-1 X=國立勤益科技大學,
34:u:tok-1 X=國立勤益科技大學,
39:u:tok-2 R=國立勤益科技大學/_x+1,
28:u:tok-1RR=國立嘉義大學,
28:u:tok-1 R=國立嘉義大學,
28:u:Tok-1 X=國立嘉義大學,
28:u:tok-1 X=國立嘉義大學,
33:u:tok-2 R=國立嘉義大學/_x+1,
34:u:tok-1RR=國立彰化師範大學,
34:u:tok-1 R=國立彰化師範大學,
34:u:Tok-1 X=國立彰化師範大學,
34:u:tok-1 X=國立彰化師範大學,
39:u:tok-2 R=國立彰化師範大學/_x+1,
34:u:Tok-1 X=國立暨南國際大學,
34:u:tok-1 X=國立暨南國際大學,
39:u:tok-2 R=國立暨南國際大學/_x+1,
34:u:tok-1RR=國立臺中教育大學,
28:u:tok-1RR=國立臺北大學,
28:u:tok-1 R=國立臺北大學,
28:u:Tok-1 X=國立臺北大學,
28:u:tok-1 X=國立臺北大學,
33:u:tok-2 R=國立臺北大學/_x+1,
34:u:tok-1RR=國立臺北科技大學,
34:u:tok-1 R=國立臺北科技大學,
34:u:Tok-1 X=國立臺北科技大學,
34:u:tok-1 X=國立臺北科技大學,
39:u:tok-2 R=國立臺北科技大學/_x+1,
34:u:tok-1 R=國立臺北教育大學,
34:u:Tok-1 X=國立臺北教育大學,
34:u:tok-1 X=國立臺北教育大學,
39:u:tok-2 R=國立臺北教育大學/_x+1,
28:u:tok-1 R=國立臺南大學,
28:u:Tok-1 X=國立臺南大學,
28:u:tok-1 X=國立臺南大學,
33:u:tok-2 R=國立臺南大學/_x+1,
37:u:Tok-1 X=以國立臺南藝術大學,
37:u:tok-1 X=以國立臺南藝術大學,
61:u:tok-1LL=藝術管理導入高齡場域活動策辦之研究,
19:u:tok-1 R=2017-2022,
44:u:tok-2 L=——/以國立臺南藝術大學,
47:u:tok-2 R=以國立臺南藝術大學/2017-2022,
19:u:Tok-1 X=2017-2022,
18:u:tok-1 X=20172022,
37:u:tok-1 L=以國立臺南藝術大學,
13:u:tok-1RR=usr,
47:u:tok-2 L=以國立臺南藝術大學/2017-2022,
23:u:tok-2 R=2017-2022/年,
16:u:Suf-2 L=大學,
28:u:tok-1RR=國立臺灣大學,
28:u:tok-1 R=國立臺灣大學,
28:u:Tok-1 X=國立臺灣大學,
28:u:tok-1 X=國立臺灣大學,
33:u:tok-2 R=國立臺灣大學/_x+1,
20:u:tok-1 L=用moriond,
25:u:tok-1 R=dataset量測b+,
12:u:tok-1RR=->,
25:u:tok-2 L=用moriond/2023,
30:u:tok-2 R=2023/dataset量測b+,
19:u:tok-1LL=何翰東,
40:u:tok-1 R=大聯盟政策之影響探討,
45:u:tok-2 R=2023/大聯盟政策之影響探討,
34:u:tok-1RR=國立臺灣科技大學,
34:u:tok-1 R=國立臺灣科技大學,
34:u:Tok-1 X=國立臺灣科技大學,
34:u:tok-1 X=國立臺灣科技大學,
39:u:tok-2 R=國立臺灣科技大學/_x+1,
14:u:tok-1 R=nhat,
14:u:tok-1 X=nhat,
14:u:Tok-1 X=NHAT,
34:u:tok-1RR=國立臺灣師範大學,
34:u:tok-1 R=國立臺灣師範大學,
34:u:Tok-1 X=國立臺灣師範大學,
34:u:tok-1 X=國立臺灣師範大學,
39:u:tok-2 R=國立臺灣師範大學/_x+1,
14:u:tok-1 R=2020,
14:u:Tok-1 X=2020,
14:u:tok-1 X=2020,
14:u:tok-1LL=2011,
16:u:tok-1 L=年及,
19:u:tok-1 R=年為例,
21:u:tok-2 L=年及/2020,
24:u:tok-2 R=2020/年為例,
16:u:Pre-2 R=年為,
16:u:Suf-2 L=年及,
19:u:tok-2 L=2023/2022,
34:u:tok-1RR=國立臺灣海洋大學,
34:u:tok-1 R=國立臺灣海洋大學,
34:u:Tok-1 X=國立臺灣海洋大學,
34:u:tok-1 X=國立臺灣海洋大學,
39:u:tok-2 R=國立臺灣海洋大學/_x+1,
34:u:tok-1RR=國立臺灣藝術大學,
40:u:tok-1RR=國立臺灣體育運動大學,
55:u:tok-1 R=企業男子甲級排球聯賽得分之分析,
60:u:tok-2 R=2023/企業男子甲級排球聯賽得分之分析,
28:u:tok-1RR=國立體育大學,
25:u:Tok-1 X=國防醫學院,
25:u:tok-1 X=國防醫學院,
30:u:tok-2 R=國防醫學院/_x+1,
22:u:tok-1RR=淡江大學,
22:u:tok-1 R=淡江大學,
16:u:Pre-2 R=淡江,
22:u:Tok-1 X=淡江大學,
22:u:tok-1 X=淡江大學,
27:u:tok-2 R=淡江大學/_x+1,
16:u:Pre-2 X=淡江,
22:u:tok-1RR=逢甲大學,
22:u:tok-1 R=逢甲大學,
15:u:Fst-2 R=L/逢,
16:u:Pre-2 R=逢甲,
22:u:Tok-1 X=逢甲大學,
22:u:tok-1 X=逢甲大學,
27:u:tok-2 R=逢甲大學/_x+1,
15:u:Fst-2 X=L/逢,
13:u:Pre-1 X=逢,
16:u:Pre-2 X=逢甲,
28:u:Tok-1 X=朝陽科技大學,
28:u:tok-1 X=朝陽科技大學,
33:u:tok-2 R=朝陽科技大學/_x+1,
16:u:Pre-2 X=朝陽,
22:u:tok-1 R=義守大學,
16:u:Pre-2 R=義守,
22:u:Tok-1 X=義守大學,
22:u:tok-1 X=義守大學,
27:u:tok-2 R=義守大學/_x+1,
16:u:Pre-2 X=義守,
28:u:tok-1RR=臺北市立大學,
28:u:tok-1 R=臺北市立大學,
28:u:Tok-1 X=臺北市立大學,
28:u:tok-1 X=臺北市立大學,
33:u:tok-2 R=臺北市立大學/_x+1,
28:u:tok-1RR=臺北醫學大學,
28:u:tok-1 R=臺北醫學大學,
28:u:Tok-1 X=臺北醫學大學,
28:u:tok-1 X=臺北醫學大學,
33:u:tok-2 R=臺北醫學大學/_x+1,
22:u:tok-1RR=輔仁大學,
22:u:tok-1 R=輔仁大學,
16:u:Pre-2 R=輔仁,
22:u:Tok-1 X=輔仁大學,
22:u:tok-1 X=輔仁大學,
27:u:tok-2 R=輔仁大學/_x+1,
16:u:Pre-2 X=輔仁,
22:u:tok-1RR=銘傳大學,
22:u:tok-1 R=銘傳大學,
15:u:Fst-2 R=L/銘,
16:u:Pre-2 R=銘傳,
22:u:Tok-1 X=銘傳大學,
22:u:tok-1 X=銘傳大學,
27:u:tok-2 R=銘傳大學/_x+1,
15:u:Fst-2 X=L/銘,
13:u:Pre-1 X=銘,
16:u:Pre-2 X=銘傳,
22:u:tok-1RR=靜宜大學,
22:u:Tok-1 X=靜宜大學,
22:u:tok-1 X=靜宜大學,
27:u:tok-2 R=靜宜大學/_x+1,
16:u:Pre-2 X=靜宜,
0=3.055199e-02
1=-5.555082e-02
2=2.973819e-02
3=-2.584533e-02
4=2.620838e-01
5=4.128869e-01
6=-4.801049e-01
7=-1.315818e-01
8=-7.414288e-02
9=-1.194778e-01
10=2.318340e-01
11=-8.119215e-02
12=-2.511724e-01
13=-3.437413e-01
14=5.510881e-01
15=2.590926e-01
16=-2.238404e-02
17=-4.092633e-02
18=-1.967678e-01
19=-6.787588e-02
20=1.592543e-01
21=-3.946701e-02
22=-1.179898e-01
23=-4.282322e-02
24=1.592543e-01
25=-3.946701e-02
26=-1.179898e-01
27=-4.282322e-02
28=1.823213e-01
29=-4.352883e-02
30=-1.470788e-01
31=-4.236609e-02
32=-1.415612e-02
33=-1.173956e-01
34=5.882787e-02
35=1.191642e-01
36=2.294156e-02
37=-1.459130e-02
38=-8.565300e-02
39=-9.060896e-02
40=-6.429669e-02
41=-4.257829e-02
42=2.490085e-01
43=-9.203030e-02
44=-1.067588e-01
45=-5.054793e-02
46=-4.576685e-02
47=3.898048e-01
48=-1.247576e-02
49=-1.193893e-02
50=-7.881340e-02
51=-8.415606e-02
52=1.683125e-01
53=-4.321305e-02
54=-9.900009e-02
55=-4.477695e-02
56=1.699661e-01
57=-4.329821e-02
58=-1.256239e-01
59=-4.346437e-02
60=1.592543e-01
61=-3.946701e-02
62=-1.179898e-01
63=-4.282322e-02
80=-1.528160e-02
81=-1.144152e-01
82=5.672825e-02
83=8.096151e-02
84=1.592543e-01
85=-3.946701e-02
86=-1.179898e-01
87=-4.282322e-02
88=1.702865e-01
89=-4.322074e-02
90=-1.351502e-01
91=-4.320305e-02
92=1.592543e-01
93=-3.946701e-02
94=-1.179898e-01
95=-4.282322e-02
96=1.592543e-01
97=-3.946701e-02
98=-1.179898e-01
99=-4.282322e-02
100=-1.086378e-01
101=4.619661e-02
102=1.065380e-03
103=5.916589e-02
104=3.113196e-02
105=1.591985e-02
106=1.335536e-01
107=-1.487310e-01
108=1.461502e-01
109=-3.909971e-02
110=-9.737211e-02
111=-4.239675e-02
112=-2.645678e-02
113=5.225475e-02
114=1.365721e-01
115=-1.292631e-01
116=1.461502e-01
117=-3.909971e-02
118=-9.737211e-02
119=-4.239675e-02
120=1.592543e-01
121=-3.946701e-02
122=-1.179898e-01
123=-4.282322e-02
140=1.096046e-01
141=-1.641169e-01
142=4.580409e-02
143=1.259869e-02
144=2.197099e-01
145=-2.101156e-02
146=-2.554228e-01
147=-9.962355e-02
148=-7.960981e-02
149=-4.117774e-02
150=1.903547e-01
151=-8.977784e-02
152=-2.516170e-01
153=-1.313550e-01
154=4.049793e-01
155=2.702474e-01
156=-1.552690e-02
157=-1.368560e-02
158=-1.885061e-01
159=-8.545782e-02
160=1.698105e-01
161=-4.290790e-02
162=-1.281478e-01
163=-4.343260e-02
164=2.265830e-01
165=-3.069194e-01
166=3.498086e-02
167=6.041904e-02
168=-3.697153e-02
169=-3.689594e-02
170=5.781089e-02
171=-1.024518e-02
172=2.171183e-02
173=-5.071305e-02
174=3.202735e-02
175=-2.292419e-02
176=3.154965e-02
177=-4.709393e-02
178=2.756227e-02
179=-1.912429e-02
180=8.501520e-02
181=-3.016115e-02
182=-4.061203e-02
183=-8.568443e-03
184=1.592543e-01
185=-3.946701e-02
186=-1.179898e-01
187=-4.282322e-02
188=3.487858e-02
189=-4.426466e-02
190=2.790113e-02
191=-1.860485e-02
192=7.288635e-02
193=-1.923492e-02
194=1.504475e-01
195=-2.459642e-01
196=-1.040506e-01
197=4.665217e-02
198=-1.610808e-02
199=6.193373e-02
200=1.590720e-01
201=-3.942994e-02
202=-1.178491e-01
203=-4.278570e-02
204=8.224651e-02
205=-2.818431e-02
206=-6.386762e-02
207=-8.164384e-03
208=1.592543e-01
209=-3.946701e-02
210=-1.179898e-01
211=-4.282322e-02
212=1.592543e-01
213=-3.946701e-02
214=-1.179898e-01
215=-4.282322e-02
216=3.452030e-02
217=-4.735421e-03
218=-2.824277e-02
219=-5.159986e-03
220=1.592543e-01
221=-3.946701e-02
222=-1.179898e-01
223=-4.282322e-02
224=8.241616e-02
225=1.844546e-02
226=-1.559329e-01
227=1.522160e-02
228=1.100812e-01
229=-7.833919e-02
230=1.283934e-01
231=-2.191994e-01
232=1.592543e-01
233=-3.946701e-02
234=-1.179898e-01
235=-4.282322e-02
236=3.292433e-02
237=-4.356553e-02
238=2.670118e-02
239=-2.060740e-02
240=7.148108e-02
241=-2.920962e-02
242=1.695294e-01
243=-2.517169e-01
244=1.592543e-01
245=-3.946701e-02
246=-1.179898e-01
247=-4.282322e-02
264=3.499209e-02
265=-3.335827e-02
266=-4.198232e-02
267=-9.322028e-03
268=7.440051e-02
269=-1.378411e-02
270=1.550794e-01
271=-2.428698e-01
272=1.577884e-01
273=-3.932920e-02
274=-1.167899e-01
275=-4.270286e-02
276=7.887635e-02
278=9.789147e-02
279=-2.134764e-01
280=3.442569e-02
281=3.409458e-02
282=1.140480e-01
283=-1.345525e-01
284=3.153227e-02
285=-5.257668e-02
286=2.718076e-02
287=-2.397556e-02
288=-5.614180e-02
289=2.057347e-01
290=-1.803383e-01
291=-3.091318e-02
292=-5.614180e-02
293=2.057347e-01
294=-1.803383e-01
295=-3.091318e-02
296=8.997952e-02
297=1.528842e-01
298=-2.781641e-01
299=-3.101893e-02
300=-5.912580e-02
301=1.438501e-01
302=-9.976124e-02
303=-3.322417e-02
304=-6.445381e-02
305=4.306435e-01
306=-2.106893e-01
307=-3.344507e-02
308=-5.709611e-03
309=-6.560969e-02
310=1.751408e-02
311=-5.785724e-03
312=-7.404284e-03
313=-1.853042e-01
314=5.182272e-02
315=-8.202392e-03
316=-5.394716e-03
317=-5.873331e-02
318=-7.747022e-03
319=-5.423660e-03
320=-1.103958e-01
321=5.896376e-02
322=1.694158e-01
323=-1.002598e-01
324=-5.714633e-02
325=1.656850e-01
326=-1.407965e-01
327=-3.187086e-02
328=-9.106835e-02
329=9.645923e-02
330=-1.569025e-01
331=1.207616e-01
332=-3.007832e-02
333=3.616105e-01
334=-2.147099e-01
335=-1.290073e-01
336=-1.245717e-02
337=-3.114615e-02
338=-1.812645e-02
339=-3.377834e-02
340=-8.676453e-02
341=-2.009777e-01
342=3.434009e-02
343=3.498883e-01
344=-1.188482e-02
345=-3.516527e-02
346=-1.660127e-02
347=-7.697182e-02
348=-5.867104e-02
349=1.398813e-01
350=-9.273593e-02
351=-3.290602e-02
352=-5.642746e-02
353=1.990884e-01
354=-1.719911e-01
355=-3.114795e-02
356=-5.714633e-02
357=1.656850e-01
358=-1.407965e-01
359=-3.187086e-02
360=-5.667377e-02
361=1.711598e-01
362=-1.524797e-01
363=-3.157256e-02
364=-5.642746e-02
365=1.990884e-01
366=-1.719911e-01
367=-3.114795e-02
368=-5.619587e-02
369=2.028824e-01
370=-1.774062e-01
371=-3.096857e-02
372=-1.574932e-01
373=2.022800e-02
374=1.007988e-01
375=5.210076e-02
376=-1.477907e-01
377=3.884771e-02
378=6.988371e-02
379=6.836565e-02
380=-1.498632e-01
381=5.858012e-02
382=5.795971e-02
383=6.793363e-02
384=-3.224755e-02
385=7.094757e-02
386=-5.103936e-02
387=6.286213e-02
388=2.021030e-01
389=4.070800e-01
390=-4.007752e-01
391=-1.383911e-01
392=-1.684454e-02
393=-3.848846e-02
394=-1.274491e-01
395=-2.965872e-02
396=-2.449354e-01
397=-3.439143e-01
398=6.166863e-01
399=2.262324e-01
400=-1.546344e-02
401=-4.839262e-02
402=-1.373178e-01
403=-7.653866e-02
404=-5.721279e-02
405=1.658305e-01
406=-1.401934e-01
407=-3.205326e-02
408=-6.449051e-02
409=4.512839e-01
410=-2.048210e-01
411=-3.334361e-02
412=-5.571081e-03
413=-6.254468e-02
414=2.476302e-03
415=-5.649697e-03
416=-5.691404e-03
417=-1.656220e-01
419=-6.964332e-03
420=-5.379596e-03
421=-5.751977e-02
422=-6.134216e-03
423=-5.399766e-03
424=-9.601825e-02
425=1.832407e-02
426=2.650801e-01
427=-2.273039e-01
428=-1.150606e-01
429=3.346046e-01
430=-2.864645e-01
431=-6.460140e-02
432=-1.497182e-01
433=-1.061799e-02
434=1.032335e-01
435=7.456331e-03
436=-1.441198e-01
438=2.570870e-02
439=2.218494e-02
440=4.377576e-02
441=1.384136e-02
442=-4.495179e-02
443=-1.838735e-02
444=6.175827e-02
445=2.171029e-02
446=-8.580943e-02
447=-7.536048e-03
448=1.721646e-02
449=1.773994e-02
450=-3.777224e-02
451=-3.941184e-03
452=-1.155374e-01
453=2.573060e-02
454=9.007689e-02
455=-4.413486e-02
456=-1.405673e-02
457=1.509640e-02
458=2.160725e-02
459=-1.424661e-02
460=-1.516341e-01
461=-2.724248e-02
462=1.047547e-01
463=9.998133e-03
464=-1.466217e-01
465=-7.483331e-03
466=8.794624e-02
467=1.759660e-02
468=2.555678e-01
469=4.131938e-01
470=-4.597865e-01
471=-1.298517e-01
472=-7.263781e-02
473=-1.189221e-01
474=2.542970e-01
475=-7.960182e-02
476=-2.197474e-01
477=-3.269161e-01
478=3.998595e-01
479=2.721630e-01
480=-2.194431e-02
481=-4.020457e-02
482=-1.680006e-01
483=-6.517118e-02
484=-1.485708e-01
485=1.593466e-03
486=2.820056e-02
487=1.740867e-02
488=-5.642746e-02
489=1.990884e-01
490=-1.719911e-01
491=-3.114795e-02
492=-5.293956e-02
493=-5.852886e-02
494=1.339431e-01
495=-3.494750e-02
498=5.063278e-04
500=-1.727225e-03
502=2.612784e-03
503=-6.711571e-04
504=-5.796377e-02
505=-6.112186e-02
506=1.427708e-01
507=-3.703764e-02
508=-5.796454e-03
509=-6.678252e-03
510=-7.024850e-02
511=-5.503858e-03
512=-9.199259e-02
513=-8.970453e-02
514=3.514172e-01
515=-4.847701e-02
516=-7.510669e-03
517=-7.391661e-03
518=-1.158498e-01
519=-7.217577e-03
520=-5.469690e-03
521=-5.467375e-03
522=-4.766344e-02
523=-5.563576e-03
524=-5.317880e-02
525=-5.869622e-02
526=1.342934e-01
527=-3.507865e-02
530=5.063278e-04
532=-1.408683e-03
533=-5.649977e-04
534=3.409962e-03
535=-1.146729e-04
536=-5.296227e-02
537=-5.853805e-02
538=1.339600e-01
539=-3.494915e-02
540=-5.525955e-02
541=-5.891896e-02
542=1.355744e-01
543=-3.461599e-02
544=-5.645180e-03
545=-6.559734e-03
546=-6.414382e-02
547=-5.656060e-03
548=-9.178048e-02
549=-8.947845e-02
550=3.876407e-01
551=-5.115867e-02
552=-6.838163e-03
553=-5.698176e-03
554=-1.732204e-01
555=9.458187e-03
556=-5.515892e-03
557=-5.345801e-03
558=-3.799247e-02
559=-5.803119e-03
560=-2.238699e-02
561=-5.333691e-02
562=1.168791e-01
563=-4.543897e-02
564=-1.374354e-02
565=-2.482690e-02
566=4.772528e-02
567=-8.762813e-03
568=-9.678214e-03
569=-3.563054e-02
570=6.791187e-02
571=-2.431084e-02
572=-1.740001e-02
573=-3.708293e-02
574=8.706852e-02
575=-3.176965e-02
576=-6.506147e-02
577=-6.010162e-02
578=2.827277e-02
579=1.001443e-01
580=-6.345132e-02
581=-3.732948e-02
582=1.353907e-01
583=-5.254717e-02
584=-1.380591e-03
585=-4.003344e-04
586=-3.569717e-04
587=4.847736e-03
588=-2.075913e-03
589=-8.604504e-03
590=1.842957e-02
591=-5.549805e-03
593=-2.803498e-04
594=1.073991e-03
596=-1.380591e-03
597=-4.003344e-04
598=-3.569717e-04
599=4.847736e-03
600=-3.969666e-05
602=-3.753398e-03
603=5.555964e-03
605=-2.803498e-04
606=1.073991e-03
608=-4.435954e-02
609=-4.238859e-02
610=1.647040e-01
611=-7.631805e-02
612=-2.930659e-02
613=-2.239955e-02
614=1.089586e-01
615=-5.574831e-02
616=-2.125674e-02
617=-1.304461e-02
618=7.830404e-02
619=-4.510468e-02
620=-2.213387e-02
621=-1.424351e-02
622=1.755136e-02
623=1.729292e-02
625=-2.803498e-04
626=1.073991e-03
628=-4.469190e-02
629=-3.122275e-02
630=-2.049401e-01
631=2.169475e-01
632=-4.469190e-02
633=-3.122275e-02
634=-2.049401e-01
635=2.169475e-01
636=-4.469190e-02
637=-3.122275e-02
638=-2.049401e-01
639=2.169475e-01
640=-4.469190e-02
641=-3.122275e-02
642=-2.049401e-01
643=2.169475e-01
644=-4.523095e-03
645=-1.189133e-03
646=8.493787e-03
647=-6.955710e-04
650=-1.302541e-03
654=-5.568641e-03
655=-1.387026e-03
656=-3.717584e-03
657=-1.626607e-03
658=2.235709e-02
659=2.433545e-03
662=-3.262496e-03
663=-6.927132e-04
666=-3.641596e-03
667=6.117932e-03
668=-4.469190e-02
669=-3.122275e-02
670=-2.049401e-01
671=2.169475e-01
674=-3.641596e-03
675=6.117932e-03
678=-3.650615e-03
679=6.119748e-03
680=-4.469190e-02
681=-3.122275e-02
682=-2.049401e-01
683=2.169475e-01
684=-4.469190e-02
685=-3.122275e-02
686=-2.049401e-01
687=2.169475e-01
688=-4.469190e-02
689=-3.122275e-02
690=-2.049401e-01
691=2.169475e-01
692=-4.469190e-02
693=-3.122275e-02
694=-2.049401e-01
695=2.169475e-01
696=-4.469190e-02
697=-3.122275e-02
698=-2.049401e-01
699=2.169475e-01
700=-4.272801e-03
701=-3.010312e-03
702=-2.530708e-02
703=3.044200e-02
704=-4.469190e-02
705=-3.122275e-02
706=-2.049401e-01
707=2.169475e-01
708=-4.469190e-02
709=-3.122275e-02
710=-2.049401e-01
711=2.169475e-01
712=-4.469190e-02
713=-3.122275e-02
714=-2.049401e-01
715=2.169475e-01
716=-4.469190e-02
717=-3.122275e-02
718=-2.049401e-01
719=2.169475e-01
720=-4.469190e-02
721=-3.122275e-02
722=-2.049401e-01
723=2.169475e-01
726=-3.641596e-03
727=6.117932e-03
728=-4.469190e-02
729=-3.122275e-02
730=-2.049401e-01
731=2.169475e-01
732=1.412026e-02
733=-3.276134e-03
734=-6.724029e-03
735=-3.603770e-03
736=1.412026e-02
737=-3.276134e-03
738=-6.724029e-03
739=-3.603770e-03
740=1.203410e-01
741=-3.268421e-02
742=-7.828058e-02
743=-3.547079e-02
744=-3.782003e-02
745=1.031124e-01
746=-6.057567e-02
747=-2.847123e-02
748=-4.142174e-02
749=1.412091e-01
750=-1.315864e-01
751=-2.537420e-02
752=-3.832221e-02
753=1.215924e-01
754=-1.110437e-01
755=-2.666552e-02
756=-4.886990e-02
757=-4.053248e-02
758=1.210907e-01
759=-3.522675e-02
760=-4.205703e-02
761=-3.527243e-02
762=1.017242e-01
763=-3.054828e-02
764=-3.799729e-02
765=-3.114413e-02
766=9.447429e-02
767=-2.864371e-02
768=-3.552337e-02
769=-2.576160e-02
770=-1.582110e-01
771=1.645524e-01
772=-1.103008e-02
773=-5.724410e-03
774=2.717736e-02
775=-1.433391e-02
776=-1.103008e-02
777=-5.724410e-03
778=2.717736e-02
779=-1.433391e-02
780=-1.081760e-02
781=-5.617330e-03
782=2.657615e-02
783=-1.400073e-02
784=-1.103008e-02
785=-5.724410e-03
786=2.717736e-02
787=-1.433391e-02
788=-5.547186e-03
789=-4.328626e-03
790=-2.658522e-02
791=3.045526e-02
792=-5.459064e-03
793=-4.269917e-03
794=-2.626685e-02
795=3.005052e-02
796=7.796454e-03
797=-1.487519e-03
798=-3.527993e-03
799=-1.738911e-03
800=7.796454e-03
801=-1.487519e-03
802=-3.527993e-03
803=-1.738911e-03
804=-3.624168e-03
805=-6.242709e-03
806=1.610104e-02
807=-4.529040e-03
808=-2.226762e-03
809=-1.177890e-03
810=4.945968e-03
811=-1.397006e-03
812=-2.226762e-03
813=-1.177890e-03
814=4.945968e-03
815=-1.397006e-03
816=-2.201035e-03
817=-1.160007e-03
818=4.880756e-03
819=-1.375789e-03
820=-2.226762e-03
821=-1.177890e-03
822=4.945968e-03
823=-1.397006e-03
824=-6.192687e-03
825=-9.604658e-03
826=3.650455e-02
827=-1.936076e-02
830=-4.201545e-03
834=-7.520486e-03
836=-6.938805e-03
837=-9.486405e-03
838=5.648601e-02
839=-2.050186e-02
842=-5.088559e-03
844=-7.238076e-04
845=-5.359788e-04
846=-1.381216e-03
847=4.689689e-03
848=-7.069763e-04
849=-5.213602e-04
850=-1.354121e-03
851=4.639181e-03
852=3.905163e-03
853=-3.193540e-04
854=-1.418635e-03
855=-4.392017e-04
856=3.905163e-03
857=-3.193540e-04
858=-1.418635e-03
859=-4.392017e-04
860=-1.056000e-02
861=-8.082698e-03
862=2.588165e-02
863=-8.324666e-03
864=-1.056000e-02
865=-8.082698e-03
866=2.588165e-02
867=-8.324666e-03
868=-1.024989e-02
869=-7.841793e-03
870=2.509922e-02
871=-8.048425e-03
872=-1.056000e-02
873=-8.082698e-03
874=2.588165e-02
875=-8.324666e-03
876=-8.897470e-03
877=-7.173693e-03
878=-2.548322e-02
879=3.481885e-02
880=-8.618185e-03
881=-6.966388e-03
882=-2.461813e-02
883=3.369951e-02
884=-2.016642e-03
885=-9.753835e-04
886=9.984692e-03
887=-4.105139e-03
888=-1.267962e-02
889=1.634711e-02
890=1.836338e-02
891=-1.727646e-02
892=-2.787378e-03
893=-6.487752e-03
894=1.749650e-02
895=-6.268127e-03
898=-1.562954e-03
901=-4.456642e-04
904=-1.688798e-03
905=-3.993938e-03
906=2.488076e-02
907=-5.777866e-03
910=-3.718808e-03
914=7.002851e-05
918=7.002851e-05
920=-1.585963e-02
921=-2.202876e-02
922=5.813958e-02
923=-2.030714e-02
924=-1.611235e-02
925=-1.595835e-02
926=1.979306e-02
927=1.477941e-02
928=6.452607e-03
929=-1.064540e-03
930=-2.878439e-03
931=-1.409025e-03
932=6.452607e-03
933=-1.064540e-03
934=-2.878439e-03
935=-1.409025e-03
936=2.443937e-03
938=-6.940342e-04
939=-3.062335e-06
940=2.552661e-04
944=2.443937e-03
946=-6.940342e-04
947=-3.062335e-06
948=2.552661e-04
952=2.552661e-04
957=4.087126e-04
958=-2.801273e-04
960=-1.227801e-03
961=6.306659e-03
962=-4.556962e-03
963=-3.997379e-04
965=2.858819e-05
968=-2.502204e-03
969=-1.810118e-03
970=5.560357e-03
971=-1.195489e-03
972=-2.502204e-03
973=-1.810118e-03
974=5.560357e-03
975=-1.195489e-03
976=-2.732106e-03
977=-1.799935e-03
978=6.262843e-03
979=-1.890511e-03
980=-2.732106e-03
981=-1.799935e-03
982=6.262843e-03
983=-1.890511e-03
984=-2.732106e-03
985=-1.799935e-03
986=6.262843e-03
987=-1.890511e-03
988=-1.122985e-03
989=-6.572455e-04
990=-3.903609e-03
991=6.469985e-03
992=5.086064e-03
993=-6.937377e-04
994=-2.106257e-03
995=-8.415356e-04
996=5.086064e-03
997=-6.937377e-04
998=-2.106257e-03
999=-8.415356e-04
1001=-5.751893e-04
1002=1.161617e-03
1007=1.277826e-03
1011=1.277826e-03
1012=-4.475426e-02
1013=-3.095936e-02
1014=-1.973918e-01
1015=2.104619e-01
1016=-4.475426e-02
1017=-3.095936e-02
1018=-1.973918e-01
1019=2.104619e-01
1020=-4.478009e-02
1021=-3.087886e-02
1022=-1.979779e-01
1023=2.107770e-01
1024=-4.475426e-02
1025=-3.095936e-02
1026=-1.973918e-01
1027=2.104619e-01
1028=6.928080e-04
1032=6.928080e-04
1036=6.928080e-04
1041=7.345079e-04
1042=-6.608041e-04
1044=-8.648783e-04
1045=5.503537e-03
1046=-4.066379e-03
1047=-1.942858e-04
1048=-1.027315e-02
1049=2.664954e-03
1050=1.560360e-02
1051=-1.038107e-02
1052=-3.372458e-03
1053=-2.269414e-03
1054=7.723371e-03
1055=-2.423627e-03
1056=-2.109716e-03
1057=-1.561071e-03
1058=4.742954e-03
1059=-1.007047e-03
1060=-3.372458e-03
1061=-2.269414e-03
1062=7.723371e-03
1063=-2.423627e-03
1064=-3.344782e-03
1065=-2.264273e-03
1066=7.653274e-03
1067=-2.393434e-03
1068=-1.015933e-02
1069=-3.293799e-02
1070=5.665781e-02
1071=-1.143491e-02
1073=-1.339124e-03
1074=-1.028611e-02
1076=-5.386396e-03
1077=-1.413065e-02
1078=2.315973e-02
1079=-3.186629e-03
1080=-5.147177e-03
1081=-1.664227e-02
1082=5.631241e-02
1083=-8.902385e-03
1086=-1.142854e-02
1088=-1.812472e-02
1089=-5.863790e-02
1090=9.825065e-02
1091=-1.941246e-02
1092=-3.372458e-03
1093=-2.269414e-03
1094=7.723371e-03
1095=-2.423627e-03
1096=-1.977855e-03
1097=-1.142031e-03
1098=-6.159435e-03
1099=8.958680e-03
1100=-1.976530e-03
1101=-1.127006e-03
1102=-6.227258e-03
1103=8.979665e-03
1104=-8.758124e-03
1105=-6.778878e-03
1106=9.249290e-03
1107=3.834608e-03
1110=-4.469667e-03
1111=-5.895321e-03
1114=-2.445934e-02
1115=-8.559809e-03
1116=-1.043945e-02
1117=-8.355280e-03
1118=5.227993e-02
1119=2.437702e-02
1122=-6.704090e-03
1123=-4.840563e-03
1124=1.911091e-03
1126=-5.381588e-04
1128=1.911091e-03
1130=-5.381588e-04
1133=-4.360496e-04
1134=2.099182e-03
1136=-7.728417e-05
1138=2.874428e-03
1139=-8.032586e-04
1140=-7.728417e-05
1142=2.874428e-03
1143=-8.032586e-04
1144=1.038325e-02
1145=-2.288476e-03
1146=-4.799028e-03
1147=-2.499629e-03
1148=3.202717e-04
1152=1.038325e-02
1153=-2.288476e-03
1154=-4.799028e-03
1155=-2.499629e-03
1156=3.202717e-04
1160=3.202717e-04
1165=4.141482e-04
1166=-5.300972e-04
1170=1.386038e-03
1174=-1.656897e-03
1175=2.444607e-03
1178=-1.656897e-03
1179=2.444607e-03
1180=-3.418718e-03
1181=-1.129979e-04
1182=7.270196e-03
1183=-3.101008e-03
1184=-2.454383e-03
1185=-1.108121e-03
1186=-8.775722e-03
1187=1.400642e-02
1188=-1.521136e-03
1189=-3.352952e-03
1190=8.603535e-03
1191=-1.538604e-03
1192=-2.454383e-03
1193=-1.108121e-03
1194=-8.775722e-03
1195=1.400642e-02
1196=-4.566800e-05
1197=-5.842022e-04
1198=3.579542e-03
1199=-9.686753e-05
1200=-2.568557e-03
1201=-4.422544e-03
1202=1.942982e-02
1203=-1.023936e-02
1204=-2.568557e-03
1205=-4.422544e-03
1206=1.942982e-02
1207=-1.023936e-02
1208=-2.509652e-04
1210=6.504021e-03
1211=-3.520386e-03
1212=-6.875644e-04
1213=4.838559e-03
1214=-3.768921e-03
1215=-5.458541e-05
1216=-6.769842e-04
1217=4.803336e-03
1218=-3.735169e-03
1219=-4.770253e-05
1220=-1.454126e-03
1221=-9.846293e-04
1222=3.698839e-03
1223=-5.562944e-04
1224=-1.454126e-03
1225=-9.846293e-04
1226=3.698839e-03
1227=-5.562944e-04
1228=-1.456483e-03
1229=-9.727331e-04
1230=3.681686e-03
1231=-5.457379e-04
1232=2.591676e-04
1236=2.591676e-04
1241=-3.063525e-04
1242=2.070808e-03
1246=3.508186e-03
1247=-1.134062e-03
1254=-3.102280e-04
1256=-7.127911e-06
1258=6.527696e-03
1259=-1.205876e-03
1266=1.163171e-03
1267=-2.259495e-04
1270=1.163171e-03
1271=-2.259495e-04
1272=6.918101e-04
1276=1.511180e-04
1280=6.918101e-04
1284=1.511180e-04
1288=1.511180e-04
1293=2.628638e-04
1294=-1.698389e-04
1296=6.688813e-04
1300=6.688813e-04
1304=-5.390183e-03
1305=-1.950696e-02
1306=4.375138e-02
1307=-1.592763e-02
1308=-1.258903e-02
1309=-1.390076e-02
1310=4.856087e-02
1311=-1.987173e-02
1312=6.650438e-03
1314=-1.374945e-02
1316=-1.217556e-04
1318=-1.810500e-02
1320=-1.991177e-02
1321=-1.231875e-02
1322=9.737500e-02
1323=-1.858588e-02
1324=-4.083398e-05
1326=-1.366065e-02
1328=-2.605149e-03
1329=-1.716906e-03
1330=5.963268e-03
1331=-1.789226e-03
1332=-1.038652e-03
1333=-5.937810e-04
1334=-3.845500e-03
1335=6.241913e-03
1336=9.382392e-04
1338=-5.900824e-05
1340=9.382392e-04
1342=-5.900824e-05
1344=-4.806047e-03
1345=4.250993e-03
1346=1.765493e-02
1347=-8.908076e-03
1348=-4.486625e-03
1349=-1.632538e-03
1350=1.549268e-02
1351=-6.110629e-03
1352=-1.179823e-02
1353=-4.850134e-03
1354=2.870422e-02
1355=-1.119614e-02
1356=-4.234801e-03
1357=-1.058435e-02
1358=2.896593e-02
1359=-1.216053e-02
1360=-1.427785e-03
1361=-5.132802e-03
1362=1.515956e-02
1363=-6.018844e-03
1364=-1.179823e-02
1365=-4.850134e-03
1366=2.870422e-02
1367=-1.119614e-02
1368=-1.427785e-03
1369=-5.132802e-03
1370=1.515956e-02
1371=-6.018844e-03
1372=-3.497647e-03
1373=-1.413521e-02
1374=3.710094e-02
1375=-1.677691e-02
1376=-4.104246e-03
1377=-1.553104e-02
1378=4.031470e-02
1379=-1.781309e-02
1380=-4.241271e-03
1381=-1.573499e-02
1382=4.087134e-02
1383=-1.800146e-02
1384=-7.895599e-03
1385=-1.495739e-02
1386=4.215192e-02
1387=-1.722418e-02
1388=-3.385595e-03
1389=-1.460600e-02
1390=3.728353e-02
1391=-1.655652e-02
1392=-1.422059e-03
1393=-5.116314e-03
1394=1.513133e-02
1395=-6.013807e-03
1396=-5.713158e-03
1397=-1.218190e-02
1398=3.367445e-02
1399=-1.373495e-02
1400=-9.753016e-03
1401=-3.184441e-03
1402=2.207223e-02
1403=-7.245561e-03
1406=-4.051952e-03
1410=-1.049636e-02
1412=-9.467935e-03
1413=-3.318804e-03
1414=5.112581e-02
1415=-6.263784e-03
1418=-1.105772e-02
1420=-3.836633e-03
1421=-1.047057e-03
1422=1.039918e-02
1423=-3.601947e-03
1426=5.118986e-04
1428=-1.121440e-02
1429=-5.149111e-03
1430=2.651668e-02
1431=-8.095504e-03
1432=-8.325177e-03
1433=-8.014928e-03
1434=2.947701e-02
1435=-1.101087e-02
1436=-9.289748e-03
1437=-8.754026e-03
1438=3.208581e-02
1439=-1.184269e-02
1440=5.550336e-03
1441=-2.112106e-04
1442=-1.023235e-02
1446=-1.483348e-02
1448=-1.514101e-02
1449=-7.120414e-03
1450=7.579501e-02
1451=-9.466784e-03
1454=-1.534434e-02
1455=-7.200901e-05
1456=4.197364e-04
1460=4.197364e-04
1464=4.197364e-04
1469=5.991409e-04
1470=-5.079935e-04
1472=8.721351e-04
1474=-1.278460e-05
1476=8.721351e-04
1478=-1.278460e-05
1481=-1.358116e-03
1482=5.271799e-03
1483=-1.602732e-03
1485=-1.358116e-03
1486=5.271799e-03
1487=-1.602732e-03
1489=-1.333428e-03
1490=5.234367e-03
1491=-1.595122e-03
1492=-1.783511e-03
1494=4.640850e-03
1495=-1.039628e-03
1498=8.490524e-04
1502=8.490524e-04
1506=8.602676e-04
1508=7.979856e-02
1509=-5.155961e-02
1510=2.311597e-02
1511=-4.242863e-02
1512=-9.414389e-04
1513=-1.679824e-03
1514=6.096514e-03
1515=-2.126943e-03
1516=-9.414389e-04
1517=-1.679824e-03
1518=6.096514e-03
1519=-2.126943e-03
1520=-9.414389e-04
1521=-1.679824e-03
1522=6.096514e-03
1523=-2.126943e-03
1525=-7.928223e-04
1526=2.219376e-03
1528=5.571981e-02
1529=-2.443219e-02
1530=1.937863e-02
1531=-4.026875e-02
1532=1.102155e-01
1533=1.500483e-02
1534=-5.386983e-02
1535=-3.920560e-03
1536=-4.208066e-03
1537=-3.875112e-03
1538=-4.181257e-02
1540=-4.037775e-02
1541=-4.330215e-02
1542=1.188381e-01
1543=-3.506352e-02
1544=-3.228353e-03
1545=-3.769326e-03
1546=-3.261748e-02
1549=-3.354730e-03
1550=6.610815e-03
1551=-2.051136e-03
1553=-7.928223e-04
1554=2.219376e-03
1556=-4.035020e-02
1557=-2.513672e-02
1558=8.898177e-02
1559=-3.359831e-02
1560=-3.029827e-02
1561=-2.264536e-02
1562=-1.172640e-01
1563=1.302616e-01
1564=-3.029827e-02
1565=-2.264536e-02
1566=-1.172640e-01
1567=1.302616e-01
1568=2.541130e-04
1572=2.541130e-04
1576=3.465344e-03
1577=-1.707810e-04
1578=-1.168775e-03
1579=-2.803707e-04
1580=3.465344e-03
1581=-1.707810e-04
1582=-1.168775e-03
1583=-2.803707e-04
1584=3.361017e-02
1585=1.259312e-03
1586=-1.643027e-02
1587=-9.505796e-03
1588=1.102678e-01
1589=-6.173658e-02
1590=3.535089e-02
1591=-9.421732e-02
1594=3.307431e-03
1595=-3.237406e-03
1596=-9.243306e-05
1598=1.613684e-03
1601=1.752782e-05
1604=-9.243306e-05
1606=1.613684e-03
1608=6.029487e-02
1609=-2.064591e-02
1610=-7.847234e-03
1611=-2.466528e-02
1612=-4.975485e-03
1613=-2.899924e-03
1614=1.725392e-02
1615=-8.851805e-03
1616=1.510445e-03
1617=-2.454237e-02
1618=3.167089e-02
1619=-1.977603e-02
1620=-9.243306e-05
1622=1.613684e-03
1624=5.747266e-02
1625=-1.916134e-02
1626=-7.428838e-03
1627=-2.345261e-02
1630=7.371204e-04
1634=9.951305e-04
1636=2.078960e-01
1637=-1.233728e-01
1638=3.801499e-02
1639=-1.135072e-01
1640=3.006433e-01
1641=-3.361898e-02
1642=-1.481111e-01
1643=-8.807446e-03
1644=-1.971779e-02
1645=-9.269933e-03
1646=-1.895614e-03
1647=-3.932552e-03
1648=-1.143043e-01
1649=-6.983438e-02
1650=2.892571e-01
1651=-9.610816e-02
1652=-9.454410e-03
1653=-3.424941e-03
1654=-8.042387e-02
1655=-1.312017e-04
1657=-4.286463e-03
1658=8.107223e-03
1659=-4.374795e-03
1661=-1.825135e-03
1662=3.656631e-03
1663=-2.029244e-04
1664=3.858790e-03
1665=-3.015149e-03
1666=9.499466e-04
1667=-2.041348e-03
1669=-4.286463e-03
1670=8.107223e-03
1671=-4.374795e-03
1674=6.037466e-04
1676=3.858790e-03
1677=-3.015149e-03
1678=9.499466e-04
1679=-2.041348e-03
1682=1.097114e-03
1684=8.832771e-02
1685=-3.568773e-02
1686=-1.283985e-02
1687=-3.307623e-02
1688=-9.158575e-03
1689=-1.212925e-02
1690=3.453343e-02
1691=-1.328953e-02
1692=1.834057e-02
1693=-1.783274e-02
1694=1.245207e-02
1695=-1.734980e-02
1696=6.947420e-02
1697=-3.197273e-02
1699=-3.015150e-02
1700=8.878465e-02
1701=-3.287758e-02
1702=-1.962233e-02
1703=-3.148008e-02
1704=-1.401551e-02
1705=-2.937235e-02
1706=7.729101e-02
1707=-3.192973e-02
1708=3.858790e-03
1709=-3.015149e-03
1710=9.499466e-04
1711=-2.041348e-03
1714=9.533362e-04
1716=7.836949e-04
1718=7.680332e-04
1719=-1.794862e-03
1722=1.405873e-03
1724=7.128849e-02
1725=-1.639424e-02
1726=-2.031936e-03
1727=-2.947927e-02
1728=-1.061109e-02
1730=1.987006e-02
1731=-1.205127e-02
1732=-2.623889e-02
1733=-2.223016e-02
1734=8.289066e-02
1735=-3.359837e-02
1736=-1.108706e-02
1737=-4.973675e-03
1738=3.046603e-02
1739=-1.372842e-02
1740=-1.394730e-02
1741=-6.480605e-03
1742=3.889254e-02
1743=-1.782972e-02
1746=8.682736e-04
1748=-1.438418e-03
1749=-6.121327e-04
1750=-1.038885e-02
1751=1.367985e-02
1752=3.496257e-04
1756=3.496257e-04
1760=3.496257e-04
1765=5.208802e-04
1766=-4.224036e-04
1768=6.523768e-03
1769=-1.068846e-03
1770=-2.927259e-03
1771=-1.408469e-03
1772=6.523768e-03
1773=-1.068846e-03
1774=-2.927259e-03
1775=-1.408469e-03
1776=2.624866e-04
1780=2.624866e-04
1784=6.689130e-04
1788=6.689130e-04
1792=9.679409e-04
1794=-7.397719e-05
1796=9.679409e-04
1798=-7.397719e-05
1800=-2.386419e-03
1801=1.364397e-03
1802=4.798013e-03
1803=-3.082300e-03
1804=-4.780806e-03
1805=-7.143258e-03
1806=1.966066e-02
1807=-6.184102e-03
1808=-8.768195e-03
1809=-4.217079e-03
1810=2.054313e-02
1811=-3.954505e-03
1812=4.747545e-03
1813=-6.177117e-04
1814=-2.149103e-03
1815=-5.943821e-04
1816=3.298920e-04
1820=4.747545e-03
1821=-6.177117e-04
1822=-2.149103e-03
1823=-5.943821e-04
1824=3.298920e-04
1828=3.298920e-04
1833=4.944914e-04
1834=-3.523881e-04
1836=1.052616e-03
1838=-1.197538e-04
1840=1.052616e-03
1842=-1.197538e-04
1845=-3.146827e-04
1846=1.945831e-03
1847=-8.621972e-04
1848=6.577844e-02
1849=-3.631832e-02
1850=1.448547e-02
1851=-5.899673e-02
1852=-6.164437e-03
1853=3.622378e-03
1854=1.012211e-02
1855=-9.371238e-03
1856=6.333944e-02
1857=-3.198975e-02
1858=8.722772e-03
1859=-5.404677e-02
1861=-8.624494e-04
1862=2.583288e-03
1863=-1.185896e-03
1865=-8.624494e-04
1866=2.583288e-03
1867=-1.185896e-03
1868=1.240003e-01
1869=-6.224480e-02
1870=1.445266e-02
1871=-6.873822e-02
1872=-9.393251e-03
1873=-1.247151e-02
1874=3.615268e-02
1875=-1.292037e-02
1876=3.523304e-02
1877=-1.935825e-02
1879=-1.756328e-02
1880=9.367076e-02
1881=-5.519432e-02
1882=1.781182e-02
1883=-6.200176e-02
1884=1.244682e-01
1885=-6.191441e-02
1886=4.705485e-03
1887=-6.833311e-02
1888=7.098618e-02
1889=-3.554443e-02
1890=9.436840e-03
1891=-5.816113e-02
1892=-9.877487e-03
1893=6.402970e-03
1894=2.287646e-03
1895=2.771365e-04
1896=6.090579e-04
1900=6.090579e-04
1906=8.925605e-04
1910=8.925605e-04
1914=8.925605e-04
1918=-3.896659e-04
1919=5.782266e-04
1920=1.324839e-03
1922=-2.598368e-04
1924=1.324839e-03
1926=-2.598368e-04
1930=9.281592e-05
1934=1.180403e-03
1935=-2.512060e-04
1938=1.180403e-03
1939=-2.512060e-04
1942=3.083656e-04
1944=1.439475e-04
1948=1.086406e-03
1950=-1.351574e-04
1952=1.439475e-04
1956=1.086406e-03
1958=-1.351574e-04
1960=1.086406e-03
1962=-1.351574e-04
1965=1.308005e-03
1966=-1.224224e-03
1969=1.524128e-04
1974=1.216940e-03
1976=-1.869356e-04
1977=-1.413078e-03
1978=4.236002e-03
1980=-1.869356e-04
1981=-1.413078e-03
1982=4.236002e-03
1984=-1.869356e-04
1985=-1.413078e-03
1986=4.236002e-03
1988=-1.405213e-03
1989=-7.392337e-04
1990=8.424370e-03
1991=-4.292437e-03
1992=-2.028439e-03
1993=1.268875e-04
1994=6.312147e-03
1995=-3.174245e-03
1996=-4.034257e-03
1997=-6.535207e-03
1998=1.857832e-02
1999=-5.781419e-03
2000=-4.244735e-03
2001=-7.252114e-03
2002=1.976186e-02
2003=-6.159984e-03
2004=-4.324730e-03
2005=-7.369677e-03
2006=2.002992e-02
2007=-6.216460e-03
2008=-3.843550e-03
2009=-6.909366e-03
2010=1.853595e-02
2011=-5.565648e-03
2012=-4.218896e-03
2013=-7.242504e-03
2014=1.967600e-02
2015=-5.935578e-03
2016=-1.620798e-03
2017=-4.539206e-03
2018=1.111174e-02
2019=-2.751583e-03
2020=-5.165424e-03
2021=-1.341181e-03
2022=1.325638e-02
2023=-4.897788e-03
2024=-8.659870e-03
2025=-3.591474e-03
2026=2.178619e-02
2027=-7.500123e-03
2028=-8.815137e-03
2029=-3.750352e-03
2030=2.227163e-02
2031=-7.655900e-03
2034=-4.012548e-03
2038=-7.390990e-03
2040=-8.189507e-03
2041=-3.645580e-03
2042=4.263651e-02
2043=-7.472478e-03
2046=-5.335392e-03
2048=3.096069e-06
2052=3.096069e-06
2056=3.096069e-06
2061=8.645968e-05
2064=6.387356e-03
2065=-2.517530e-03
2067=-5.379731e-03
2068=8.962943e-03
2069=-7.071500e-03
2070=1.551040e-03
2071=-6.311581e-03
2072=8.962943e-03
2073=-7.071500e-03
2074=1.551040e-03
2075=-6.311581e-03
2076=3.019860e-03
2077=-5.360931e-05
2078=-9.751463e-04
2079=-1.403096e-04
2080=3.019860e-03
2081=-5.360931e-05
2082=-9.751463e-04
2083=-1.403096e-04
2085=1.040171e-04
2089=6.920587e-05
2094=3.675611e-06
2098=3.675611e-06
2100=3.495457e-04
2104=3.495457e-04
2110=1.529298e-03
2114=1.874258e-03
2118=3.019302e-04
2122=3.019302e-04
2126=1.722610e-04
2130=1.256830e-05
2133=1.390143e-05
2137=8.569894e-04
2141=1.107877e-03
2142=-5.335182e-04
2144=-3.697319e-05
2146=1.407846e-03
2148=-3.697319e-05
2150=1.407846e-03
2154=1.323786e-03
2156=2.727341e-04
2160=2.727341e-04
2164=2.727341e-04
2169=4.448126e-04
2170=-3.455364e-04
2172=-8.625486e-05
2174=7.009710e-04
2176=-8.625486e-05
2178=7.009710e-04
2180=-3.842972e-03
2182=7.376744e-03
2183=-2.675561e-03
2184=-2.685425e-03
2185=-1.225427e-02
2186=2.111626e-02
2187=-4.390207e-03
2190=-1.753130e-03
2192=-1.783661e-04
2193=-3.026996e-03
2194=4.185815e-03
2196=-1.344555e-03
2197=-7.324295e-03
2198=2.197265e-02
2199=-3.642582e-03
2202=-2.189399e-03
2204=-6.119632e-03
2205=-2.411783e-02
2206=4.092600e-02
2207=-9.183296e-03
2208=-2.506690e-03
2209=-2.362605e-03
2210=7.903763e-03
2211=-6.608014e-04
2214=-1.734832e-03
2218=-1.088069e-02
2219=-1.067925e-04
2220=-2.175958e-03
2221=-1.983562e-03
2222=2.715445e-02
2226=-3.519859e-03
2229=1.981349e-03
2230=-1.498161e-03
2233=1.990378e-03
2234=-1.526531e-03
2236=-3.745330e-04
2238=1.857579e-03
2240=3.082106e-04
2241=-9.094860e-04
2242=6.728310e-04
2243=-3.613835e-04
2244=-3.745330e-04
2246=1.857579e-03
2248=-3.653401e-04
2250=1.831208e-03
2252=3.082106e-04
2253=-9.094860e-04
2254=6.728310e-04
2255=-3.613835e-04
2256=3.082106e-04
2257=-9.094860e-04
2258=6.728310e-04
2259=-3.613835e-04
2263=-2.857755e-04
2264=-1.587785e-03
2265=6.595404e-03
2266=-5.505447e-03
2267=-5.066407e-04
2268=-1.509424e-03
2269=7.940177e-03
2270=-6.427980e-03
2271=-4.431798e-04
2272=-2.490558e-03
2273=-1.695545e-03
2274=5.312577e-03
2275=-1.274732e-03
2276=1.065186e-02
2277=-2.270270e-03
2278=-1.251540e-04
2279=-2.467719e-03
2280=-2.490558e-03
2281=-1.695545e-03
2282=5.312577e-03
2283=-1.274732e-03
2284=-2.354667e-03
2285=-1.624831e-03
2286=5.123007e-03
2287=-1.256226e-03
2290=1.439975e-04
2293=-3.721917e-04
2294=1.454767e-03
2296=2.010732e-02
2297=-5.227390e-03
2298=-6.640849e-03
2299=-3.478407e-03
2302=1.160938e-03
2304=2.010732e-02
2305=-5.227390e-03
2306=-6.640849e-03
2307=-3.478407e-03
2310=1.160938e-03
2314=3.353310e-04
2318=1.103122e-03
2322=1.160938e-03
2326=-3.911394e-04
2327=8.833080e-04
2330=-3.770554e-04
2331=8.523205e-04
2333=-2.462519e-04
2334=3.146131e-04
2337=6.427762e-04
2338=-5.830527e-04
2342=5.768064e-04
2346=5.768064e-04
2350=2.132182e-04
2354=2.132182e-04
2356=1.722423e-04
2360=1.722423e-04
2364=1.722423e-04
2369=2.559770e-04
2370=-1.512287e-04
2372=8.174743e-05
2376=8.174743e-05
2380=8.174743e-05
2385=1.456053e-04
2386=-1.346167e-04
2390=1.925728e-04
2394=1.925728e-04
2398=1.925728e-04
2400=7.293562e-04
2404=7.293562e-04
2410=1.203645e-03
2414=1.203645e-03
2418=1.203645e-03
2423=4.057162e-04
2425=1.164273e-03
2426=-9.395280e-04
2429=9.937573e-04
2430=-9.105455e-04
2434=1.316248e-03
2438=1.316248e-03
2442=1.140423e-03
2444=2.689553e-04
2448=2.689553e-04
2452=2.689553e-04
2457=3.134370e-04
2458=-3.370965e-04
2460=1.261834e-04
2464=1.261834e-04
2468=1.261834e-04
2473=4.107359e-04
2477=3.293114e-04
2478=-1.851653e-04
2481=-2.155450e-04
2482=7.229822e-06
2483=4.441577e-04
2485=-2.155450e-04
2486=7.229822e-06
2487=4.441577e-04
2490=1.692289e-03
2494=1.692289e-03
2498=2.426073e-04
2502=5.597757e-05
2506=1.417180e-04
2510=2.073065e-04
2514=1.692289e-03
2518=-5.935050e-04
2519=1.023696e-03
2520=1.883764e-04
2524=1.883764e-04
2528=1.883764e-04
2533=3.185103e-04
2534=-2.128503e-04
2538=1.922688e-03
2542=1.922688e-03
2546=1.762925e-03
2550=1.922688e-03
2554=-1.459253e-03
2555=1.642633e-03
2558=-1.320238e-03
2559=1.490871e-03
2560=-7.678838e-04
2562=4.163039e-03
2563=-1.708530e-03
2566=1.330699e-03
2568=-5.719251e-04
2569=-2.702166e-03
2570=5.883096e-03
2571=-7.274563e-04
2573=-5.869408e-04
2574=4.840057e-04
2576=2.767522e-04
2580=2.767522e-04
2584=2.767522e-04
2590=1.174427e-02
2591=-7.578256e-03
2593=4.070218e-04
2594=-3.101254e-04
2596=1.987781e-05
2597=-1.130085e-02
2598=1.719026e-02
2599=-9.187619e-03
2600=1.987781e-05
2601=-1.130085e-02
2602=1.719026e-02
2603=-9.187619e-03
2605=-1.782334e-03
2606=2.805182e-03
2608=1.321800e-04
2612=1.321800e-04
2616=1.321800e-04
2621=4.126423e-05
2625=2.832625e-04
2626=-1.808070e-04
2630=9.340739e-05
2634=9.340739e-05
2638=3.613269e-04
2643=1.943661e-04
2646=1.832232e-04
2649=-4.809700e-04
2650=3.434897e-03
2651=-3.225781e-04
2654=1.832232e-04
2657=-1.937023e-04
2658=2.763524e-03
2659=-7.828803e-04
2660=-3.964574e-03
2661=-9.653481e-03
2662=2.938873e-02
2663=-1.353421e-02
2664=-7.984753e-04
2665=-9.949940e-04
2666=7.706860e-03
2667=-3.600653e-03
2668=-7.984753e-04
2669=-9.949940e-04
2670=7.706860e-03
2671=-3.600653e-03
2673=-1.937023e-04
2674=2.763524e-03
2675=-7.828803e-04
2677=-1.937023e-04
2678=2.763524e-03
2679=-7.828803e-04
2682=7.504985e-04
2686=7.504985e-04
2688=1.344341e-03
2690=-1.512441e-04
2692=1.344341e-03
2694=-1.512441e-04
2696=1.344341e-03
2698=-1.512441e-04
2701=5.142929e-04
2702=-8.713500e-04
2706=6.422445e-04
2710=6.422445e-04
2714=1.612521e-03
2718=1.612521e-03
2722=4.546417e-04
2726=1.612521e-03
2730=-5.796049e-04
2731=8.562640e-04
2734=-1.641075e-04
2735=2.624702e-04
2737=2.339353e-05
2742=8.171909e-04
2746=8.171909e-04
2750=8.171909e-04
2752=7.026776e-03
2753=-3.256405e-03
2755=-7.369648e-03
2756=2.109980e-02
2757=-1.034709e-02
2759=-9.694585e-03
2760=2.109980e-02
2761=-1.034709e-02
2763=-9.694585e-03
2766=7.199845e-04
2770=2.504927e-03
2771=-2.925508e-04
2774=2.504927e-03
2775=-2.925508e-04
2778=2.504927e-03
2779=-2.925508e-04
2780=9.179576e-02
2781=-7.813416e-02
2782=3.936088e-02
2783=-9.165719e-02
2785=-1.077291e-03
2786=5.611783e-03
2787=-1.806651e-03
2788=-1.763520e-03
2789=-6.255413e-03
2790=1.938648e-02
2791=-9.108478e-03
2792=-1.763520e-03
2793=-6.255413e-03
2794=1.938648e-02
2795=-9.108478e-03
2796=-1.763520e-03
2797=-6.255413e-03
2798=1.938648e-02
2799=-9.108478e-03
2800=5.708225e-02
2801=-5.461876e-02
2802=3.916750e-02
2803=-8.315998e-02
2804=1.767886e-01
2805=2.811100e-02
2806=-1.138433e-01
2807=-1.009295e-02
2808=-4.773536e-03
2809=-6.255745e-03
2810=-6.675021e-02
2811=-1.100937e-03
2812=-9.310864e-02
2813=-9.300947e-02
2814=2.998345e-01
2815=-5.538108e-02
2816=-6.709217e-03
2817=-7.637641e-03
2818=-7.240306e-02
2819=-3.661618e-03
2820=-3.894113e-04
2821=-6.615013e-03
2822=1.770508e-02
2823=-7.471961e-03
2824=2.113375e-04
2828=2.113375e-04
2832=2.113375e-04
2836=3.964905e-03
2837=-1.832421e-03
2839=-2.432315e-03
2841=2.608470e-04
2842=-2.651109e-04
2844=4.697194e-03
2845=-3.231785e-03
2846=7.090400e-04
2847=-3.190013e-03
2849=-4.510146e-03
2850=7.016130e-03
2851=-2.020123e-03
2852=4.697194e-03
2853=-3.231785e-03
2854=7.090400e-04
2855=-3.190013e-03
2857=-4.510146e-03
2858=7.016130e-03
2859=-2.020123e-03
2860=1.010225e-01
2861=-2.374327e-02
2862=-4.512312e-02
2863=-2.149366e-02
2864=-2.873335e-02
2865=-3.618105e-02
2866=1.075350e-01
2867=-4.979712e-02
2869=-4.510146e-03
2870=7.016130e-03
2871=-2.020123e-03
2873=-5.897551e-04
2874=2.524198e-03
2875=-1.623605e-03
2878=8.294616e-05
2882=8.294616e-05
2886=8.194089e-05
2890=8.294616e-05
2892=2.276036e-02
2893=-1.172335e-03
2894=-1.670550e-02
2895=-8.989308e-04
2897=-1.837975e-03
2898=8.269244e-03
2899=-4.739624e-03
2900=-9.617560e-04
2901=-3.016036e-05
2902=5.086060e-03
2903=-8.676109e-04
2904=7.845457e-02
2905=7.261741e-04
2906=-6.845442e-02
2907=-8.698681e-03
2908=6.580335e-02
2909=-1.076312e-04
2910=-5.708428e-02
2911=-3.908609e-03
2912=3.293816e-02
2913=3.625088e-04
2914=-3.011829e-02
2915=-1.110642e-03
2917=-5.345564e-03
2918=1.046346e-02
2919=-5.290066e-03
2920=-1.561857e-05
2921=-3.814521e-03
2922=7.204971e-03
2923=-1.048767e-03
2924=1.649226e-03
2925=-1.497711e-03
2927=-1.294702e-03
2929=-5.345564e-03
2930=1.046346e-02
2931=-5.290066e-03
2932=-9.880556e-04
2933=-8.356093e-04
2934=5.824591e-03
2935=-1.034042e-03
2936=1.649226e-03
2937=-1.497711e-03
2939=-1.294702e-03
2940=2.054126e-04
2944=2.604307e-02
2945=-6.600117e-03
2946=-8.304095e-03
2947=-3.688160e-03
2948=1.813416e-02
2949=-1.625803e-02
2950=1.062826e-02
2951=-1.596521e-02
2952=1.649226e-03
2953=-1.497711e-03
2955=-1.294702e-03
2956=-4.375347e-05
2958=2.955496e-03
2959=-8.883927e-04
2960=6.988158e-04
2961=-4.570155e-04
2963=-7.835125e-04
2964=-8.728996e-05
2966=1.580031e-03
2968=-4.375347e-05
2970=2.955496e-03
2971=-8.883927e-04
2972=-8.728996e-05
2974=1.580031e-03
2976=5.159430e-04
2978=-6.715929e-04
2980=-4.935747e-03
2981=-2.339394e-02
2982=5.410769e-02
2983=-3.054246e-02
2984=-7.735617e-03
2985=-1.269949e-02
2986=3.440382e-02
2987=-1.431062e-02
2988=-8.728996e-05
2990=1.580031e-03
2993=-7.967477e-04
2994=2.316649e-03
2996=-1.095832e-02
2997=-9.962987e-03
2998=3.528129e-02
2999=-1.418864e-02
3000=-1.083021e-02
3001=-1.070220e-02
3002=3.612546e-02
3003=-1.421362e-02
3005=-3.878770e-04
3006=3.163788e-03
3007=-5.063765e-04
3010=2.330958e-05
3014=2.330958e-05
3016=-1.046992e-02
3017=-1.533963e-02
3018=4.024048e-02
3019=-1.359619e-02
3020=-2.190963e-03
3021=-8.775969e-03
3022=1.714281e-02
3023=-3.916844e-03
3026=2.330958e-05
3029=-3.427046e-04
3030=2.750628e-03
3031=-3.158023e-04
3038=-3.378346e-04
3041=-1.197446e-04
3042=6.385413e-03
3046=-2.555167e-04
3048=-2.386146e-03
3049=-7.346315e-04
3050=5.326412e-03
3051=-1.703527e-03
3052=-2.386146e-03
3053=-7.346315e-04
3054=5.326412e-03
3055=-1.703527e-03
3056=-7.518136e-04
3058=2.813649e-03
3059=-3.786706e-04
3060=-1.388916e-02
3061=-1.060010e-02
3062=3.995456e-02
3063=-1.600390e-02
3064=-8.159465e-04
3066=4.747244e-03
3067=-1.881917e-03
3068=-3.635518e-03
3069=-8.198027e-04
3070=1.000977e-02
3071=-4.211660e-03
3072=-2.386146e-03
3073=-7.346315e-04
3074=5.326412e-03
3075=-1.703527e-03
3076=-6.280456e-04
3077=-1.865515e-03
3079=2.508463e-03
3082=-1.324921e-03
3083=2.091306e-03
3086=-1.939856e-03
3087=3.137961e-03
3088=7.994075e-04
3092=7.994075e-04
3096=-5.800884e-04
3097=-8.975493e-03
3098=1.629882e-02
3099=-1.302293e-03
3100=-5.378380e-04
3101=-8.955109e-03
3102=1.367015e-02
3103=-9.263375e-04
3104=-1.992122e-03
3105=-2.219806e-03
3106=6.326603e-03
3107=-9.775604e-04
3108=-1.963938e-03
3109=-2.156123e-03
3110=6.164543e-03
3111=-9.365058e-04
3112=-1.771312e-03
3113=-1.976887e-03
3114=5.512753e-03
3115=-8.248313e-04
3116=-1.855343e-03
3117=-1.994699e-03
3118=5.723841e-03
3119=-8.769362e-04
3120=-1.491062e-03
3121=-9.633214e-04
3123=3.268030e-03
3124=-1.422990e-03
3125=-9.387003e-04
3127=3.392546e-03
3129=-4.628017e-04
3130=1.916103e-03
3132=4.874128e-04
3136=4.874128e-04
3140=4.874128e-04
3145=6.754999e-04
3146=-5.667622e-04
3148=-2.962602e-03
3150=5.745672e-03
3151=-1.330955e-03
3152=-8.350517e-04
3153=-1.043477e-02
3154=1.498696e-02
3155=-1.642583e-03
3156=-8.350517e-04
3157=-1.043477e-02
3158=1.498696e-02
3159=-1.642583e-03
3162=2.550072e-04
3166=2.550072e-04
3170=2.550072e-04
3174=-7.078531e-04
3175=5.444833e-04
3176=1.665174e-04
3180=1.665174e-04
3184=1.665174e-04
3189=2.876598e-04
3190=-1.776238e-04
3192=-8.354314e-04
3193=-8.278669e-04
3194=6.759510e-03
3195=-2.943343e-03
3197=-7.545057e-03
3198=1.228579e-02
3199=-3.436191e-03
3200=2.611197e-03
3201=-3.214997e-03
3202=1.154760e-03
3203=-1.367383e-03
3205=-3.973310e-03
3206=5.455517e-03
3209=-2.545488e-04
3210=7.738654e-04
3213=-4.723922e-04
3214=1.024635e-03
3217=-3.973310e-03
3218=5.455517e-03
3220=-1.883565e-03
3221=-2.324849e-03
3222=6.719799e-03
3223=-5.319276e-04
3225=-3.973310e-03
3226=5.455517e-03
3228=3.537400e-03
3229=-1.881905e-03
3231=-1.866681e-03
3234=3.683083e-04
3238=1.083837e-03
3240=3.537400e-03
3241=-1.881905e-03
3243=-1.866681e-03
3246=1.083837e-03
3250=1.083837e-03
3255=2.234490e-04
3256=1.270935e-04
3260=1.270935e-04
3264=1.270935e-04
3269=1.717305e-04
3270=-8.674747e-05
3274=3.805876e-04
3278=5.593257e-06
3280=1.235097e-02
3281=-2.663832e-03
3282=-3.186035e-03
3283=-2.037908e-03
3286=5.593257e-06
3288=1.235097e-02
3289=-2.663832e-03
3290=-3.186035e-03
3291=-2.037908e-03
3292=5.712488e-03
3293=-2.836994e-04
3294=-3.295131e-03
3296=1.235097e-02
3297=-2.663832e-03
3298=-3.186035e-03
3299=-2.037908e-03
3302=8.532183e-04
3306=1.244566e-03
3308=1.177393e-02
3309=-9.973808e-04
3310=-3.372266e-03
3311=-2.197010e-03
3314=8.532183e-04
3316=4.860905e-03
3318=-2.621189e-03
3322=1.102432e-04
3326=1.102432e-04
3330=9.827679e-06
3335=4.166822e-05
3338=1.630994e-03
3342=1.630994e-03
3346=1.625261e-03
3350=1.630994e-03
3354=-9.900478e-04
3355=1.222353e-03
3358=-1.029558e-03
3359=1.245131e-03
3363=1.547727e-04
3367=1.547727e-04
3371=1.547727e-04
3375=1.551719e-04
3378=1.183710e-03
3382=1.183710e-03
3386=1.157429e-03
3390=1.183710e-03
3394=-8.234352e-04
3395=9.581704e-04
3398=-8.094598e-04
3399=9.252156e-04
3400=-1.279974e-03
3401=-1.252314e-03
3402=8.228261e-03
3403=-3.166229e-03
3404=-1.257861e-03
3405=-1.189066e-03
3406=8.059007e-03
3407=-3.113946e-03
3408=-1.524061e-03
3409=-1.419610e-03
3410=7.677456e-03
3411=-2.233355e-03
3412=-1.474744e-03
3413=-1.382230e-03
3414=7.518613e-03
3415=-2.189315e-03
3416=-1.521713e-03
3417=-1.413649e-03
3418=7.666248e-03
3419=-2.231378e-03
3420=-2.030797e-03
3421=-1.067677e-03
3422=7.688325e-03
3423=-1.781962e-03
3424=-1.713914e-03
3425=-7.271003e-04
3426=6.135417e-03
3427=-8.314845e-04
3428=1.379130e-01
3429=-1.781985e-02
3430=-1.085788e-01
3431=-9.314943e-03
3432=1.919655e-02
3433=-7.747274e-03
3434=-1.178125e-03
3435=-5.999785e-03
3436=1.045618e-02
3437=-4.102458e-03
3439=-5.044877e-03
3440=7.555945e-03
3441=-1.132658e-03
3442=-2.476102e-03
3443=-3.840297e-04
3444=1.919655e-02
3445=-7.747274e-03
3446=-1.178125e-03
3447=-5.999785e-03
3448=5.104884e-03
3449=-3.508823e-04
3450=-1.754477e-03
3451=-8.719841e-05
3452=2.438105e-03
3456=7.555945e-03
3457=-1.132658e-03
3458=-2.476102e-03
3459=-3.840297e-04
3460=3.141779e-02
3461=-1.983657e-03
3462=-2.249512e-02
3463=-1.338509e-03
3464=8.699488e-02
3465=-3.027461e-02
3466=-2.205854e-02
3467=-3.153163e-02
3468=3.141779e-02
3469=-1.983657e-03
3470=-2.249512e-02
3471=-1.338509e-03
3472=7.555945e-03
3473=-1.132658e-03
3474=-2.476102e-03
3475=-3.840297e-04
3476=5.293043e-03
3478=-7.255673e-04
3479=-3.673555e-04
3480=2.872177e-02
3481=-5.429267e-03
3482=-1.551000e-02
3483=-5.079733e-03
3484=2.872177e-02
3485=-5.429267e-03
3486=-1.551000e-02
3487=-5.079733e-03
3488=1.171047e-01
3489=-3.486808e-02
3490=-1.564254e-02
3491=-3.709040e-02
3492=2.872177e-02
3493=-5.429267e-03
3494=-1.551000e-02
3495=-5.079733e-03
3496=2.606311e-02
3497=-1.618780e-03
3498=-1.467107e-02
3499=-4.295186e-03
3502=1.055981e-04
3506=1.055981e-04
3510=9.800594e-05
3514=1.055981e-04
3518=-4.520790e-05
3519=2.131411e-04
3522=-3.641842e-05
3523=2.012322e-04
3524=7.718529e-03
3525=-3.980839e-03
3527=-3.269955e-03
3528=7.966423e-03
3529=-1.236839e-03
3530=-3.203197e-03
3531=-6.048901e-04
3532=7.718529e-03
3533=-3.980839e-03
3535=-3.269955e-03
3536=1.411664e-03
3540=7.966423e-03
3541=-1.236839e-03
3542=-3.203197e-03
3543=-6.048901e-04
3544=7.966423e-03
3545=-1.236839e-03
3546=-3.203197e-03
3547=-6.048901e-04
3548=3.164981e-03
3551=-4.992111e-04
3552=4.125765e-03
3553=-3.077940e-03
3555=-3.850982e-03
3556=2.332225e-03
3560=4.125765e-03
3561=-3.077940e-03
3563=-3.850982e-03
3564=4.125765e-03
3565=-3.077940e-03
3567=-3.850982e-03
3569=-1.429143e-03
3570=1.899925e-03
3571=-4.430065e-03
3574=5.372481e-04
3578=1.671504e-03
3582=1.671504e-03
3585=9.623364e-06
3590=5.411183e-04
3594=5.411183e-04
3596=-8.784910e-05
3598=2.220794e-03
3600=-8.784910e-05
3602=2.220794e-03
3604=-8.784910e-05
3606=2.220794e-03
3610=-1.743120e-04
3611=1.419938e-03
3612=-9.584852e-04
3613=-3.575125e-04
3614=2.629168e-03
3616=-9.584852e-04
3617=-3.575125e-04
3618=2.629168e-03
3620=-1.062033e-06
3622=3.116146e-03
3623=-7.966268e-04
3624=-1.062033e-06
3626=3.116146e-03
3627=-7.966268e-04
3628=-1.062033e-06
3630=3.116146e-03
3631=-7.966268e-04
3633=-9.510359e-04
3634=4.618522e-03
3635=-1.269641e-03
3636=8.876206e-05
3640=8.876206e-05
3644=-2.393087e-02
3645=-2.083083e-02
3646=7.956432e-02
3647=-3.287436e-02
3650=1.944628e-04
3654=1.944628e-04
3656=1.450174e-03
3660=-2.230001e-02
3661=-1.862599e-02
3662=7.383970e-02
3663=-3.117162e-02
3664=-2.231927e-04
3666=2.735579e-03
3667=-1.108698e-03
3668=-2.094320e-02
3669=-1.722304e-02
3670=6.914805e-02
3671=-2.936765e-02
3672=-2.497173e-02
3673=-2.458114e-02
3674=8.416871e-02
3675=-3.328305e-02
3677=-1.672318e-03
3678=-2.251762e-02
3680=-7.070405e-04
3681=-1.033765e-04
3682=-1.885004e-02
3684=-2.352484e-02
3685=-1.912565e-02
3686=1.586824e-01
3687=-3.255148e-02
3688=-6.883327e-04
3689=-2.458732e-05
3690=-2.917559e-02
3692=1.319658e-03
3693=-1.328602e-04
3695=-9.805285e-05
3696=2.008783e-03
3698=-5.592971e-04
3700=-2.361752e-02
3701=-2.237624e-02
3702=7.843903e-02
3703=-3.117320e-02
3704=-1.858584e-03
3705=-8.001647e-04
3706=6.170986e-03
3707=-1.508596e-03
3708=-9.347049e-03
3709=-8.962060e-03
3710=3.520484e-02
3711=-1.283723e-02
3712=-2.225278e-02
3713=-2.070873e-02
3714=7.447497e-02
3715=-2.978131e-02
3716=-1.739810e-02
3717=-1.687920e-02
3718=6.024674e-02
3719=-2.437748e-02
3720=2.026897e-03
3721=-8.206930e-04
3723=-3.502492e-04
3724=2.026897e-03
3725=-8.206930e-04
3727=-3.502492e-04
3728=-2.460337e-02
3729=-2.115713e-02
3730=7.157602e-02
3731=-2.293380e-02
3732=-1.131176e-02
3733=-7.575053e-03
3734=3.283165e-02
3735=-1.135575e-02
3739=3.491983e-05
3743=1.638114e-05
3744=-3.868087e-03
3745=-6.751857e-03
3746=1.824708e-02
3747=-5.479513e-03
3748=-3.868087e-03
3749=-6.751857e-03
3750=1.824708e-02
3751=-5.479513e-03
3752=-3.868087e-03
3753=-6.751857e-03
3754=1.824708e-02
3755=-5.479513e-03
3756=-8.109941e-03
3757=-3.350320e-03
3758=2.070102e-02
3759=-7.225424e-03
3760=1.013272e-03
3761=-8.372109e-04
3763=-8.045961e-04
3764=1.681237e-02
3765=-9.939871e-04
3766=-1.129254e-02
3767=-6.047503e-04
3768=6.498719e-02
3769=-1.540058e-02
3770=-2.795552e-02
3771=-1.271076e-02
3772=1.681237e-02
3773=-9.939871e-04
3774=-1.129254e-02
3775=-6.047503e-04
3776=3.294452e-03
3777=-1.123173e-03
3779=-9.721998e-04
3780=3.149728e-03
3781=-3.909805e-03
3782=3.450069e-03
3783=-6.814797e-03
3784=3.294452e-03
3785=-1.123173e-03
3787=-9.721998e-04
3788=-5.748608e-05
3789=-1.903140e-03
3790=7.977805e-03
3791=-3.842702e-03
3792=8.200336e-02
3793=-1.851828e-02
3794=-4.083715e-02
3795=-1.482013e-02
3797=-1.053344e-03
3798=5.325812e-03
3799=-2.857449e-03
3800=7.155038e-03
3801=-8.711904e-03
3802=4.611604e-03
3803=-8.404198e-03
3804=7.155038e-03
3805=-8.711904e-03
3806=4.611604e-03
3807=-8.404198e-03
3809=-6.162257e-03
3810=1.187180e-02
3811=-4.222302e-03
3812=-6.100632e-05
3813=-3.864161e-03
3814=8.898085e-03
3815=-2.445920e-03
3816=2.700927e-04
3817=-5.204896e-03
3818=8.669254e-03
3819=-3.293019e-03
3820=-6.308709e-04
3821=-1.147597e-03
3822=7.370743e-03
3823=-3.225569e-03
3824=-1.003790e-03
3826=4.841597e-03
3827=-1.569031e-03
3830=6.947850e-04
3834=9.336866e-04
3838=6.947850e-04
3841=-5.454297e-04
3842=3.959043e-03
3843=-1.357072e-03
3845=-5.998941e-04
3846=4.327776e-03
3847=-1.619913e-03
3849=-7.382801e-04
3850=4.380542e-03
3851=-1.478470e-03
3853=-5.998941e-04
3854=4.327776e-03
3855=-1.619913e-03
3857=-5.454297e-04
3858=3.959043e-03
3859=-1.357072e-03
3861=-7.382801e-04
3862=4.380542e-03
3863=-1.478470e-03
3865=-5.454297e-04
3866=3.959043e-03
3867=-1.357072e-03
3869=-7.382801e-04
3870=4.380542e-03
3871=-1.478470e-03
3874=1.503014e-03
3876=-9.125208e-04
3878=3.097326e-03
3879=-3.531265e-04
3882=1.503014e-03
3884=-2.185413e-04
3885=3.542323e-03
3886=-2.743763e-03
3888=-2.023153e-04
3889=3.494906e-03
3890=-2.702794e-03
3892=-1.010828e-03
3893=-3.322006e-04
3894=2.633442e-03
3897=5.407690e-04
3902=1.248478e-03
3906=1.248478e-03
3910=1.487164e-04
3915=2.787657e-04
3919=2.787657e-04
3922=-3.475852e-06
3923=9.526435e-05
3925=-4.762017e-03
3926=1.305714e-02
3927=-6.098506e-03
3929=-4.762017e-03
3930=1.305714e-02
3931=-6.098506e-03
3933=-1.603370e-04
3934=7.869787e-04
3935=-4.116646e-04
3937=-4.762017e-03
3938=1.305714e-02
3939=-6.098506e-03
3941=-5.505234e-03
3942=1.216041e-02
3943=-5.956392e-03
3946=2.030166e-03
3947=-6.062068e-04
3948=7.016431e-04
3952=5.154523e-04
3956=2.156819e-02
3957=-2.936033e-03
3958=-1.558801e-02
3959=-1.319660e-03
3960=7.975545e-05
3964=2.156819e-02
3965=-2.936033e-03
3966=-1.558801e-02
3967=-1.319660e-03
3968=1.556434e-03
3970=-1.094787e-03
3972=3.852092e-04
3974=-3.585195e-05
3976=2.156819e-02
3977=-2.936033e-03
3978=-1.558801e-02
3979=-1.319660e-03
3980=1.545024e-02
3982=-1.308434e-02
3983=-1.000305e-03
3984=4.035762e-04
3988=4.134506e-05
3992=1.804379e-03
3996=1.147289e-03
4000=-3.942324e-02
4001=-2.609538e-02
4002=8.886379e-02
4003=-3.275960e-02
4004=-2.912674e-02
4005=-2.157826e-02
4006=-1.197621e-01
4007=1.277577e-01
4008=7.279090e-03
4009=-6.466224e-04
4010=-3.414897e-03
4012=7.279090e-03
4013=-6.466224e-04
4014=-3.414897e-03
4016=7.279090e-03
4017=-6.466224e-04
4018=-3.414897e-03
4020=3.040733e-03
4022=-2.997046e-04
4023=-7.125393e-06
4024=1.216939e-02
4025=-3.543389e-03
4026=-2.672722e-05
4027=-2.698300e-03
4028=3.235408e-03
4029=-1.210221e-03
4031=-2.267822e-03
4032=1.216939e-02
4033=-3.543389e-03
4034=-2.672722e-05
4035=-2.698300e-03
4036=1.868995e-03
4038=-8.160875e-05
4040=1.540148e-04
4044=8.370078e-04
4048=3.922699e-04
4052=1.803202e-02
4053=-4.419557e-03
4055=-3.973709e-03
4056=4.044094e-03
4057=-2.919100e-03
4059=-3.689158e-03
4061=-3.414765e-04
4062=1.800970e-03
4063=-3.936863e-03
4066=4.915070e-05
4070=4.915070e-05
4074=4.915070e-05
4076=-5.545062e-04
4078=3.547477e-03
4079=-4.184325e-04
4081=-4.848106e-03
4082=7.980880e-03
4083=-1.166166e-03
4085=-4.848106e-03
4086=7.980880e-03
4087=-1.166166e-03
4088=-1.923812e-06
4089=-1.080101e-03
4090=5.474837e-03
4091=-2.355008e-03
4093=-5.773945e-03
4094=8.483243e-03
4095=-1.887989e-03
4096=1.177906e-03
4097=-3.379267e-04
4098=-8.032784e-04
4104=-8.105298e-04
4105=-3.082781e-03
4106=1.413895e-02
4107=-1.446750e-03
4110=-1.583870e-03
4113=-1.101412e-02
4114=1.643895e-02
4115=-4.136121e-03
4117=-4.120321e-04
4118=3.156191e-03
4119=-5.524860e-04
4120=1.407911e-03
4122=-1.478881e-03
4126=-4.494244e-03
4128=-1.308537e-03
4129=-3.864320e-04
4130=1.341113e-02
4134=-1.384844e-03
4138=9.072923e-05
4142=-6.915656e-04
4143=1.037383e-03
4146=-6.915656e-04
4147=1.037383e-03
4148=1.578659e-03
4152=-2.521971e-04
4153=-3.660366e-04
4154=5.163277e-03
4155=-1.996058e-03
4156=3.420744e-03
4157=-9.607423e-04
4160=3.787473e-03
4161=-4.475816e-04
4162=-9.925262e-04
4164=3.420744e-03
4165=-9.607423e-04
4168=3.787473e-03
4169=-4.475816e-04
4170=-9.925262e-04
4172=-1.197389e-03
4173=-3.393436e-03
4174=9.405648e-03
4175=-2.474205e-03
4177=-5.803176e-03
4178=1.150611e-02
4179=-3.971034e-03
4180=3.787473e-03
4181=-4.475816e-04
4182=-9.925262e-04
4184=2.248954e-03
4186=-3.850069e-04
4190=1.083099e-03
4194=-5.722818e-04
4195=1.027823e-03
4198=1.820266e-03
4199=-2.028067e-04
4200=-1.812516e-04
4202=2.744478e-03
4203=-3.249363e-04
4204=-2.189917e-03
4205=-6.713783e-05
4206=6.036844e-03
4207=-1.654716e-03
4210=1.512064e-03
4212=-2.189917e-03
4213=-6.713783e-05
4214=6.036844e-03
4215=-1.654716e-03
4216=-2.189917e-03
4217=-6.713783e-05
4218=6.036844e-03
4219=-1.654716e-03
4220=-1.661336e-04
4222=2.694693e-03
4224=-5.453538e-04
4225=-4.650306e-04
4226=4.204107e-03
4227=-3.148404e-04
4228=-3.950839e-04
4229=-5.879113e-03
4230=1.082727e-02
4231=-2.138026e-03
4232=1.235895e-02
4233=-4.415887e-03
4234=-8.929381e-04
4235=-3.620284e-03
4236=-1.661336e-04
4238=2.694693e-03
4240=1.235895e-02
4241=-4.415887e-03
4242=-8.929381e-04
4243=-3.620284e-03
4246=4.233342e-04
4248=-1.661336e-04
4250=2.694693e-03
4252=1.235895e-02
4253=-4.415887e-03
4254=-8.929381e-04
4255=-3.620284e-03
4256=-2.119166e-04
4258=3.142000e-03
4259=-6.541263e-04
4260=8.254054e-03
4261=-7.177904e-04
4262=-2.506702e-05
4263=-3.601459e-03
4266=1.687570e-03
4268=-1.490428e-02
4269=-1.725393e-02
4270=5.243173e-02
4271=-1.890470e-02
4272=-9.022799e-05
4274=2.096243e-03
4276=-1.094679e-02
4277=-1.423545e-02
4278=3.984667e-02
4279=-1.386634e-02
4280=9.127552e-03
4281=-1.480186e-03
4282=-3.169276e-04
4283=-2.044582e-03
4285=-8.988250e-03
4286=1.915006e-02
4287=-1.098272e-02
4288=3.851390e-04
4292=9.268849e-04
4297=-8.988250e-03
4298=1.915006e-02
4299=-1.098272e-02
4301=-8.988250e-03
4302=1.915006e-02
4303=-1.098272e-02
4305=-8.547237e-03
4306=2.033771e-02
4307=-1.175954e-02
4308=5.834196e-03
4309=-9.704338e-03
4310=7.594870e-03
4311=-1.129268e-02
4312=7.290438e-04
4314=-3.843981e-04
4316=5.834196e-03
4317=-9.704338e-03
4318=7.594870e-03
4319=-1.129268e-02
4320=7.417350e-03
4321=-9.888455e-04
4322=-2.706864e-03
4323=-1.144844e-04
4324=5.834196e-03
4325=-9.704338e-03
4326=7.594870e-03
4327=-1.129268e-02
4328=5.650161e-03
4329=-7.405507e-03
4330=4.060097e-03
4331=-7.542910e-03
4332=8.611776e-04
4336=3.960725e-03
4338=-8.298368e-03
4339=7.124281e-04
4341=-2.011100e-03
4342=6.682630e-03
4343=-2.798851e-03
4345=-1.746666e-03
4346=7.126163e-03
4347=-2.459368e-03
4350=2.293859e-03
4351=-2.173920e-04
4354=2.293859e-03
4355=-2.173920e-04
4358=2.293859e-03
4359=-2.173920e-04
4361=-1.132295e-03
4362=3.221894e-03
4365=-1.342295e-03
4366=5.355911e-03
4367=-1.368679e-03
4369=-2.279715e-03
4370=4.253903e-03
4371=-1.102600e-03
4373=-2.279715e-03
4374=4.253903e-03
4375=-1.102600e-03
4377=-2.279715e-03
4378=4.253903e-03
4379=-1.102600e-03
4382=2.459408e-03
4383=-6.020598e-04
4385=-5.526295e-04
4386=2.680205e-03
4387=-9.009467e-04
4390=2.459408e-03
4391=-6.020598e-04
4393=-1.408336e-03
4394=2.207063e-03
4395=-1.488548e-03
4397=-1.408336e-03
4398=2.207063e-03
4399=-1.488548e-03
4401=-1.408336e-03
4402=2.207063e-03
4403=-1.488548e-03
4405=-1.328607e-04
4406=1.450773e-03
4407=-1.294172e-03
4410=7.443122e-05
4414=7.443122e-05
4418=1.976546e-04
4422=1.008402e-03
4426=1.976546e-04
4430=1.976546e-04
4432=-4.850910e-05
4434=6.621202e-04
4438=5.215316e-04
4440=1.163278e-03
4441=-1.363168e-03
4443=-1.306416e-03
4444=1.163278e-03
4445=-1.363168e-03
4447=-1.306416e-03
4448=1.163278e-03
4449=-1.363168e-03
4451=-1.306416e-03
4452=8.480516e-04
4453=-1.152502e-03
4455=-1.404178e-03
4458=5.820237e-04
4462=5.820237e-04
4466=5.820237e-04
4471=7.087145e-05
4475=1.383945e-04
4476=1.045313e-03
4481=-4.329396e-04
4482=2.379843e-03
4483=-5.171795e-06
4484=-6.486061e-05
4486=3.681267e-03
4487=-1.432406e-03
4488=-6.486061e-05
4490=3.681267e-03
4491=-1.432406e-03
4494=9.742179e-04
4498=9.742179e-04
4502=9.742179e-04
4506=1.100332e-03
4508=-2.123384e-05
